{{1.0705617019390128, 0.3330939099209375, 0.4226618311649812, -0.7192965630576259, 0.0472808422081372, 0.3992782562908642, -1.4090479481539067, -0.032344629780516644, 0.03554292821599973, 1.3407696740452784, -1.4307576207632888, 0.22474062310679588, 1.018491211261752, -0.5631294374688428, 0.13915345487189618, -2.6932737267935853, -1.9328728351388822, 0.33041559776972557, 1.7377960228024039, -2.2304215434061176, 1.05523077953122, -3.1173257668847034, -3.1191523328429844, 0.25907862498879236, -0.11142519751245841, -1.6752886700385707, -0.9936381658450283, 0.4270392485183856, -0.5319097191739409, -1.2419925074308034},
{0.45077320248462843, 0.3464991902481459, 0.7175313940492999, 1.1147185836158742, -0.810476714127001, 0.8735570716574363, 1.2499380625728618, 1.383645484699569, -1.785420073291614, -2.1553699317262858, 0.5480261116521735, 0.46603390436006564, 0.6236705062453711, -0.25704926944556267, -1.7441027032541843, 0.8940557421114146, 0.7268908706530589, -2.3883948339033707, -0.8862979997966922, 0.597829228197297, -1.2543838752758723, 1.5840083587698246, 0.5346866905929382, -1.2855702243525073, -3.7615024211290593, -0.6527290012783424, 1.2511817750123135, -1.1591275469336686, 0.04615540583904218, -2.3827877614856847},
{-2.5049070749013183, 0.9629603177622644, 0.3569012748811891, -0.027483338887624383, -2.963071194903137, 0.6978287212056139, -1.4951335036812283, -2.075799077769639, 1.557788299791507, 0.05075230430369014, -0.09054726813017742, -1.422222132429798, 1.4942926968545371, -2.394626781067756, 0.8051288531080024, -2.076389619014267, 0.5122861120570454, 1.5956652450842723, -2.2581698050372228, 2.947180805822863, 1.6126221084349623, 0.7637496964258205, -0.36559321951523494, 0.4542985272164884, -1.015040778833299, -0.7380678360945934, -2.081667151700806, -0.11977916707953112, 0.12539899666518842, 0.17351886572304268},
{1.6165190689563511, -2.587638706550017, 0.5349822571744559, 1.0751137748695847, 0.6014501967281171, -2.3281970909919676, -3.165935819758808, 1.6864281375142576, 1.0997973150636344, 1.1888815251164244, 1.0565471737893994, -0.614418555015201, -0.7186650665080077, -0.7255747700398572, -0.1585378487282419, 1.117240341594223, 2.5163611325925483, -2.5140025114380777, -2.7504980523831857, -2.3030720109173384, -0.20564790444162476, 0.18164411606796893, -0.40547006622106885, 0.8447284218552318, 0.8967883198613066, -0.966780297421454, -2.6645889996583456, -1.05117618329743, -1.391785397349405, -1.4990536252747617},
{-1.0018856372941187, -1.3074164118269378, -0.9520959932067817, -0.4283659944690219, -0.03645003308529769, -1.1334582012874528, 0.20780656059253097, -1.0053156805074661, 2.0533183517689135, 0.5048754158637933, -2.4351548237109077, -0.3696336443615774, 0.987600638275119, -3.270038667521508, 0.06203828706115376, -0.06808402217880506, 0.21958593866745732, -1.2726525624134617, -0.06319838311139424, 0.6999520982642355, -1.2414492961755792, -2.6134353752307633, 1.438436395173617, -2.069852886619324, -0.3784501507379364, 0.3246107059733929, 0.9058704333758469, 2.432602017829969, -1.770705774052377, 1.004945351495419},
{0.6723409832309499, -0.8563490366330716, -0.26086186321112914, -1.4353549903319942, 1.206803168719157, -1.9968298226998933, 1.3551509215317106, -0.5065159248757676, -2.2877839154455417, -4.375064180926595, -1.6675288393632886, 2.8714917907710142, -0.6780050504951672, -1.235289270168779, -2.920404012407557, 2.4210194951920214, -2.5647213505723543, 0.20030373577885016, 0.7749260352720551, 0.015743379936488125, -0.3910375805733184, 1.5876419453160953, 0.6617804598125543, 2.487010148578826, 1.652665343463768, 1.5432770431229148, 0.3969378639623991, -0.44695296208050134, 0.9924111777476827, -2.0722838690037553},
{-1.1610885102169377, 0.8466701518855212, -0.9022761765834029, 0.8455314689845678, 0.9336705562513744, -0.13414654440236146, 0.9954863805622671, -1.0830771324812232, 0.17092035106636758, -0.7185884865759705, -1.4125981390466678, -0.21255820465617145, -1.118726255037724, 2.1421453563382293, -1.3491456525657262, -1.8428541260804452, -0.01004774428530169, -0.0770799485002006, -0.08584976250447582, -0.8505705695478261, -3.114132504787874, 2.4044932695165087, 0.3485923099024633, 1.3385297698681071, -0.7090747487325676, -2.9657556873852338, -0.43899731667918956, -0.5545681290887282, -3.6070308883395588, 1.1288614624161317},
{-0.18997444019036747, -1.7342081177404052, -2.310843258978348, -0.857177992544492, -1.2674567801050969, -0.9409915422470753, -3.0214556987429404, 1.2938751430410347, -1.8626472315607512, -0.15464533297759459, 1.6078995333198618, 2.0565012263198765, -0.7470775036690994, -0.24507918681370244, -0.5961305834484869, 0.98913416796486, -0.05399928035855384, 1.0598189004266785, -0.05852264833387013, 2.886737612179498, -0.9814457661741072, -0.3660890666123035, -2.7635713979690473, -1.6581886848418412, -0.1446246081579133, 0.4963304804582207, 0.9598441508733345, 2.1615065997399077, 0.4647723381773123, 2.3899933578009716},
{-1.464441227088253, -0.5387309282565127, 0.5214527329339218, 0.01924248853629622, -0.1617094511534604, 1.0390153150245582, 1.8098699782917946, -1.3235367670867875, -0.6138739144627451, 1.0373751208190694, -1.7454831655577696, -3.408318524269099, -3.4726439664692172, 1.5455818933656744, 1.0035145635307003, 0.011452931694366354, -1.796072052107089, 2.7201720692933304, -2.2784740757920754, -2.027597845357738, -1.7299832208711414, -1.9460718473664569, -0.9731478339725642, -2.797933036700569, 0.10755638151746016, 1.2665703583263856, -2.4985676318088728, -1.415258091468323, 1.6811292158561877, -2.6683997701944944},
{0.506511111102364, -0.9991122765131845, -2.4278313345388223, -2.815288875613412, -0.6079992379300813, -0.23054382281034627, 2.073639776542465, -1.9463422378667639, -1.0872790505445933, -0.983562522674796, 2.307554953952934, -2.3408148694453197, 0.09041625308605974, 2.8629452878144113, -0.6764503567275154, -1.0550252832105613, -0.0061213377856526455, -1.6991200030202975, 1.4708466824691488, -3.4907846425915894, 1.6435219347830263, -0.970819877539098, 1.7261553350211696, -1.5199670448803935, -0.4365172778243375, -0.6897145486884702, 0.32603693955063745, -4.292188954329689, 0.04848390241510896, 0.515944051263892}}