{{0.031762580746208385, -0.07113959010611827, 0.0011648543719273397, -0.0019853801944578636, -0.08746139742519739, 0.016957827350077427, 0.004777692524250984, 0.04848229275476963, 0.027577955970100997, 0.019258006508127052, -0.022327790854107958, -0.03356255800251671, 0.030427242861552118, 0.004673060740743305, 3.769380327003727E-4, 0.05727101545003866, 0.008692187454710334, -0.04636463875560982, -0.00124412542145434, 0.03981948738922879, 0.016978196917568883, 0.022281077374252643, -0.05820656134946285, -0.04564929668846873, 0.004386543026108015, -0.02981840462120271, 0.032507123457042875, -8.408114638665915E-4, 0.01467156045316044, -0.026753756782002334, 0.048910541956480105, 0.030678657227513718, -0.01717177149044371, -0.01761825912760789, -0.07329798698679622, -0.05866047896327156, 0.022160698946824205, -0.022703779115508322, -0.045416188537533174, -0.03179138099355698, -0.04328005624865871, -3.8722118858137706E-4, -0.0018117717820277646, 0.00402039737360924, -0.06411679584368941, -0.04292835160362384, 0.031163122968969358, -0.03470337703983168, 0.07397345913657359, 0.044769592379350666, 0.02406050019049265, 0.02057442988031867, 0.002880413725709789, -9.308486685668936E-4, 0.016318362319000437, -0.0034708933242433957, 0.048008244911121704, -0.03410384861964084, -0.010197032288958423, -0.024962068595358624, 0.03941298529409573, -0.021812549624154635, -0.03545673900217972, -0.04191691591923799, -0.00429706213684314, -0.009415167812887417, -0.0289977190616607, -0.04931119683710489, -0.11979341294233296, -0.01104351193503454, -0.1495765499546624, -0.06858818786209808, -0.06785159686429225, -0.08298358844791795, 0.0660555695003191, 0.023630811986916956, -0.006040574235687724, -0.004466401729182121, 7.801541276706131E-4, -0.022020377565264874, 0.04509511550437431, -0.0065821102118713256, 0.04318496282627193, -0.0066900674535609285, -0.058264531712098784, 0.022305578234673443, 0.01982526470305841, 0.046301414624108236, 0.10682138655199457, -0.02843889955071592, -0.032442433138501515, -0.041645387549900686, -0.08174142922129209, -0.12646881973578927, -0.11875958051520172, -0.1284244510088123, -0.11783872551359702, -0.18334270234289202, -0.12298302373484325, -0.11834869028854623, -0.09833353814003494, -0.020103486948277193, 0.02606856093074287, -0.00875214723941485, -0.008863326214450545, -0.012057788109818402, -0.05568494475040012, -0.0456067500922605, -0.06075054288251826, 0.06424473925236349, -0.030789537595369412, 4.1899678850549786E-4, -0.039915689102805275, -0.04627195926170038, -0.0024268870878398257, -0.04218078518664008, 0.047083789316363665, -0.0380928192497048, 0.0184020958810278, 0.08201330915677038, 0.08563235540621493, 0.03478565265972382, -0.04173643099498228, 0.006145235651474347, -0.05067047267341034, -0.04588703700447631, -0.10989636869306449, 0.019419170581361344, -0.024907934088359947, 0.062477792018264984, 0.09354558455046498, 0.169796210876504, 0.06358047480074738, 0.04430631262694436, 0.051199435650002734, -0.07396206089046807, -0.04426562488250937, 0.010745465780930373, -0.003870280298708009, -0.022719410668553538, -0.013065176173676226, -0.010792461775784166, 0.057417949448092274, -0.08979175925183062, 0.021972931183793322, 0.0915053205288826, -0.007942730565220846, 0.018467244890758995, 0.06740306767650081, 0.006461602806337008, 0.03525342754660067, -0.04534279278438811, -0.13736785583233063, -0.0437752758639952, 0.0420284499926641, 0.18625388576027843, 0.030725689864940692, -0.09357338721782162, 0.010282405536011669, 0.006360536632430456, -0.07616453965339176, -0.12704208830512911, 0.05227760665567112, 0.019551379860117547, -0.05398649855768114, -0.01832763818088493, -0.02278489629971889, 0.03563688409918119, -0.007179331646602089, 0.018074808129650392, 0.03234679308413522, 0.013071549802019041, 0.057482333844510465, 0.10208738749285005, -0.003666103734550364, 0.06331189930467322, -0.02123529696619567, -0.1297776902254369, -0.12391586733704339, -0.11591196115964046, -0.22687706861758536, -0.06614306435656843, -0.019870185184015517, -0.017039978648912487, 0.06583492463268205, 0.07253206894918453, 0.08259047068060135, -0.035567600999929186, -0.004802339638687048, 0.04817526514315726, 0.038879748134846834, 0.04263709777796737, 0.03876325298780398, -0.0282795644407013, 0.017879905759183773, -0.002339969123088056, 0.06415320590501823, -0.01205176404157885, 0.013436017446391923, 0.06946041986798386, 0.05535788784471305, 0.012947789002520502, -0.015101043023425957, -0.06438932549623277, -0.11056011017137475, -0.10632795244582582, -0.18381441460598233, -0.20339590657626783, -0.12177300553406106, -0.07879622783979347, -0.05602696223161579, 0.007888418628212575, 0.002224776907242355, 0.1266728932575564, -0.03379539702300663, 0.11823082477726861, 0.07505997771583282, 0.041958245661566466, -0.028381508351053058, 0.05652826951405576, 0.011756396092098534, 0.02118041180399339, -0.0294404545149341, 0.02147933874756626, 0.0525753197309268, 0.03850631451968865, 0.014818641345251578, -0.00805886796484458, -0.07991510960697874, -0.06616591532301072, -0.08928847871556198, -0.0812187900305933, -0.09675608148843332, -0.12110398309606908, -0.12108173833380469, -0.21896027270192886, -0.03645837458555735, -0.17998944302613315, 0.0770085523151099, 0.16814181117910837, 0.03577551452389391, 0.07867848885866856, 0.10664480849354545, 0.11147358630343272, 0.1673795673362679, 0.14268425074226174, 0.12365040878188731, 0.10864482507138949, 0.11599985380327729, 0.16132826292152397, 0.09568685775473143, 0.05773555446868065, 0.060678470089485334, 0.05025815729926645, 0.02536230327191293, 0.016669884195917303, -0.05712717415479849, -0.1372868377670958, 0.009951402941672051, 0.0162393656062406, 0.048906193291815524, -0.058842464130535246, 0.006662550130718236, -0.05638807756725911, -0.040871177537120315, -0.06055621906099426, 0.0861965663470668, 0.20206332394491477, 0.25457906808612596, 0.1342551975868537, 0.17700190443118888, 0.11562396441259247, 0.11799022388459329, 0.09342351686191944, 0.05278457421230168, 0.06528308478487752, 0.1780305538766482, 0.11490876048615332, -0.03639262739948084, 0.0255397909427234, -0.007449510451173638, 0.053709092081861726, 0.01627040010168653, 0.04189021708009906, -0.005014444282477118, -0.038839743899601174, 0.03871985430448464, 0.013891641227226272, 0.010961851480604926, -0.045271088436728, -0.086364818203013, 0.05509559105319002, -0.10550044132688323, 0.10265491094749896, 0.20985751342115905, 0.40693401793746375, 0.33817253749022713, 0.2468502221708633, 0.17762572087431905, 0.07935176381087113, 0.15967365471425002, 0.1602110281176569, 0.1258811413235355, 0.06558860683627964, 0.1743718408863726, 0.07970425491195442, 0.018554379832131637, -0.01602936116841418, -0.012755971724463976, 0.032071080200125494, 0.03944104268274432, 0.05265010840914108, 0.07293031359459141, 0.06333214232288309, 0.0914773627776083, 0.12219782092018555, 0.09777281779760803, -0.002653388959594942, 0.2538462671931109, 0.34776610568523597, 0.2158637603740404, 0.31033435605896376, 0.39084516802417396, 0.42719053605908386, 0.20398516584043944, 0.3375775276030189, 0.19222581671284994, 0.08295916449722343, 0.3076168968448538, 0.19605913149045057, 0.1028045647147808, 0.06818627270484552, 0.014155966197569453, 0.054000592266451396, 0.04472584214279795, -0.014596158250138139, -0.10505014252646164, 0.0029521238225541815, -0.04809076682395914, 0.011068524757023622, 0.07047801054473346, 0.1293255120286692, 0.2343712797724621, 0.2359115192042784, 0.07968489035311169, 0.21352301221737954, 0.3076093744698221, 0.23631571891267678, 0.17577496555847857, 0.05619372881589829, 0.27074950294861694, 0.20965513273469907, 0.021306791771620245, 0.04396670006912447, 0.12419236615444809, 0.0971549536110113, -0.010816844582887772, -0.15728742449531988, 0.03254575275817495, -0.020565343271490528, -0.09531762578534844, -0.10095361967041398, -0.010446635754937641, 0.041662691337195704, 0.0092662443010988, -0.05171152819996976, -0.014538398604483077, -0.01998034172676119, 0.12393124970308023, 0.28202915442453724, 0.2959828999356932, 0.28219822504577313, 0.180217065645477, 0.0905002796778491, 0.09149985888705005, -0.1987605891129441, -0.3126117908611195, -0.054073835231512775, 0.19462280630167275, 0.016966190585883854, -0.03791605443652888, -0.017199192146852393, -0.009513052915655238, 0.06684001242070238, -0.04767656848178294, -0.023538166157785766, 0.14487711353549024, 0.04025093052213471, -0.0020426081123243876, -0.05699294662320682, -0.10773646147071407, -0.0023038844845013544, -0.010319632729234498, -0.0115508847155365, -0.04901846783500913, -0.01856101378872771, 0.0867031569839606, 0.17591169841043894, 0.14930002889324795, 0.15334213556809992, 0.11173619554040774, 0.1344186141973543, -0.15148444477788545, -0.3913844517681022, -0.13017279020545358, -0.11436473233915062, -0.022116703989868768, -0.03587544936719218, -0.1583837269265914, -0.12421909471234954, -0.03504478208025701, 0.030700275502035693, -0.008538814765214757, 0.1802412495048572, 0.10545442536793655, 0.17320816052943494, 0.09881096794206935, -0.022478011068256587, 0.02498822928499068, 0.03627089703020022, -0.052468082336714066, -5.417581084943299E-4, -0.017831938892282923, -0.1016720821555615, 0.004179073668107251, -0.01687050475953694, -0.07233392817692147, 0.02773610831543861, 0.10515934455199767, -0.06294925619551954, -0.273240394844447, -0.3992877797108147, -0.2283581918648522, -0.28994026910580273, -0.20412809392100886, -0.2283841404346975, -0.2842303184574467, -0.11928775950174125, 0.10429047643169434, 0.08472333203641022, 0.19418388932288466, 0.10368370742887803, 0.10750292667426536, 0.20486389554356296, 0.03447971523500935, -0.04365837836610648, 0.025506343001394257, 0.0019022402007847538, 0.032386018260260246, -0.013505930769734302, 0.06787913175712568, 0.019771484347998407, -0.01947769435643254, 0.044153982780207726, -0.011903444692446979, -0.017171830904659305, -0.10656481160079256, -0.38903398875173134, -0.5195594111125723, -0.5384098138494089, -0.6058217733770734, -0.3900682164415659, -0.4252000352142645, -0.3412589834136288, -0.31493170763924994, -0.1312479950515966, 0.04167331704079185, 0.02682617630125752, 0.05397837731082165, -0.06075477303369812, 0.0682215636411693, 0.07882637628428342, 0.054774367639946614, -0.1672168037194605, -0.0816557684137713, -0.05437982577989229, -0.010149126719286417, 0.01017921975070289, -0.01935985444037111, 0.005576164496268638, 0.017992736351666767, 0.015375301056136508, -0.08342407335507207, 0.09588885019637677, -0.015729727076089824, -0.34387421744677604, -0.396962810762968, -0.49858167169311945, -0.4797411007820435, -0.40248846672280886, -0.44091034921192346, -0.3948929623371234, -0.23740309443315682, -0.13798699354533603, -0.13132907659139784, -0.015394685029939948, 0.02363696856092953, -0.08674970346309367, 0.024324563962047407, 0.02452826566661682, -0.03162523415453004, -0.12833297752152165, -0.030672705872413754, 0.02764006953614471, 0.03128840018605214, 0.02732706234718246, 0.0684438229693615, 0.10562668370722854, -0.0068532894677155055, -0.05893766598103528, -0.01664259482258481, 0.005254743559487947, 0.16546855727837548, 0.15323836007844305, 0.06100646042802045, 0.010646511732375666, -0.26245615793547805, -0.10489413862973616, -0.12903363031147758, -0.19796830187882314, -0.3985912129835694, -0.2223431690084669, -0.11514314103603294, -0.06578838503902557, -0.01668143827536107, 0.023426456341852496, 0.03884013345183931, -0.0475997318376546, -0.19411453294934972, -0.06200838132789412, -2.4347965941610492E-4, 0.006663137043070845, 0.06256478233957505, 0.006639708489007328, 0.003248873179678616, 0.0871650639075191, -0.06188605991963626, 0.0038263386804101534, -0.10419749667366746, 0.001982942958034028, 0.20931450820289474, 0.30759707250828494, 0.33367545289785444, 0.41570845935986955, 0.22961914561096355, 0.1553451416480015, -0.08461620057382878, -0.2746724954240288, -0.23978933959952173, -0.21622665507885622, -0.10391660051948695, -0.018313738214023368, -0.042193915365991756, 0.06595570022938706, 0.005483617053481166, -0.0755158052466296, -0.040484034146135904, -0.08801297006997695, -0.07092559319100918, 0.04760090680200858, -0.028422117539340513, -0.04801875854437586, -0.016423209947930898, 0.011261463923311947, -0.04377234839405381, -0.07475397190535513, -0.02235155703315336, -0.10062922232526518, 0.16891591291760136, 0.2519199616346061, 0.33213043692154953, 0.3452135656187202, 0.301624891096874, 0.15825015811419893, -0.02965111119369377, -0.21898578587880088, -0.1942023564701018, -0.0960546074867392, -0.14007189397211026, -0.13157898150765795, -0.049094904150487305, 0.025509137964686453, -0.08351817013776108, -0.13834710386965232, -0.06608398103451457, 0.07329103470622028, 0.015370252454733715, 0.026827268920676467, 0.08102905539193106, 0.041399506980689144, -0.011226516700599463, -0.05359621569070163, 0.03952643567666429, 0.002631255299627448, 0.018636485012723244, 0.054766343021116375, 0.01257551342277303, 0.04498322564900372, 0.13318152231177374, 0.1889492052115684, 0.12487262933898759, 0.05885292429339099, -0.14865979790616896, -0.1759212407611598, -0.2161424048549808, -0.2990219206203621, -0.22351737166739005, -0.17061857205417544, 0.049788097424333565, -0.038459618668331225, -0.145354641245673, -0.14156431033619135, -0.094697334523574, -0.0768482414275986, 0.03859113606902898, 0.025958273429254913, -0.014084070047741398, 7.658911001920096E-4, -0.035935866844057265, 0.025738268287207346, -0.07212026064799942, -0.07707631231033629, -0.0853170134100649, -0.09019314326640349, -0.003486212710413168, 0.03040265458022223, -0.002815269938066119, -0.08042339318842094, -0.09807085494622285, -0.02952024597815277, -0.026818181224812623, -0.0701875363155713, -0.067548457098456, -0.04410110476767433, -0.18701264619480062, 0.0104003241668641, -0.09621298238024005, -0.08068483316227133, -0.11729184848190341, -0.15631606999404157, -0.08992293311813085, -0.029365818199689763, 0.013340968142614179, 0.051506517905381126, 0.007222839312164773, 0.0436975958398395, -0.009958106393161723, -0.08739838090582526, 0.042317872609244904, 0.12525795970283046, 0.05464787745970402, -0.024074982495191584, -0.05495000777011335, 7.105346191916105E-4, 0.05970726117893915, 0.05281037334385223, -0.10028264838163087, -0.11275882627476588, -0.1138141336191677, -0.05048779573487276, -0.11842158121527051, -0.05270770662118907, -0.09207672274835928, -0.1412241514619767, -0.13665916115459756, -0.1419303225297242, -0.09580270496691197, -0.0704558425150619, -0.011715626048906996, 0.01654736869749794, 0.04039249299990886, -0.04598316819969835, 0.050064988744087206, -0.0011026251820121077, 0.06261698949227608, -0.034735035039412686, 0.06967020015897697, 0.21423611723112096, 0.15536370027979307, 0.11508316471555403, -0.0028825659504481222, -0.12280714080652204, -0.14622963432229605, -0.25249390340876987, -0.2031892977906618, -0.1351028791057517, -0.22333227334228423, -0.19934215655296317, -0.18605442472820477, -0.07510105354808304, -0.12013403205667546, -0.1476643530642279, -0.11440536763234169, -0.04960280577396809, -0.06229487121504953, -0.0223852118149727, -0.016857742293436048, 0.029533850138851746, 0.027387847082068373, -0.012494220701174013, -0.02516214300590911, 0.03803653413161623, 0.057372139005952776, 0.008175028914788277, 0.0026152688583455388, 0.08055059915812288, 0.11681386550679117, 0.15948468657716017, 0.17984461110272423, 0.04899491872062815, 0.025363538392792973, -0.028759860762182395, 0.018723175898377183, 0.020023142600161404, -0.02901792179129072, -0.14744996259993703, -0.025768473411259377, -0.03735262915097752, -0.06395149111146455, -0.007263861970067218, 0.023329596648056825, 0.05431861584845193, 0.016109527868425212, 0.001687132297820571, 0.01633380921666272, 0.001015842008485423, 0.024197361171104024, -0.06192668383515102, 0.05145728635998381, 0.02065022517799184, 0.046140032936137096, 0.04866041089608072, -0.0020816300369464052, 0.03726559719652658, -0.030634324615834107, -0.002268703518606103, 0.05400693296934105, 0.047134653532704095, -0.012118943643256785, -0.027815951597582864, 0.10218393998805667, 0.09146123218837927, 0.0452458138305111, 0.06015481582911492, 0.08045229257087452, 0.08357904381230889, 0.0403771135724598, 0.0480552887302957, 0.002579366162187037, -0.02983430273687202, 0.07932192517573194, 0.04255776911814697, -0.03848680953128773, -0.025115250576392724, 0.031906093793208426, 0.023550052138490065, 0.011633647639229031, 0.004832545458884578, 0.012578087865464492, 0.038994708448814766, -0.003200126186513092, -0.020427435258720476, -0.022444602815313748, 0.03968085226866207, 0.01497350829069106, -0.005804570310466065, -0.046029879601184445, 0.003940524838135562, 0.0119226198941784, 0.0800460728325762, 0.03670979697606131, -0.007507401496105488, -0.0021652310476696383, -0.035308046976295464, 8.112935269034528E-4, -0.03759700402160556, -0.02345144372627716, -0.03383021344749053, 0.007658230232139526, 0.040704608021467824, 0.007068037677441595, 4.163574688768888E-4, -0.003059510976880469, -0.01290553551968766},
{0.017015808032144843, 0.032505592018378784, 0.006722514835607937, 0.008366604248078198, 0.02430396968438922, -0.04660432979154228, 0.009780451155758322, -0.04351144578067466, 0.03843491669683517, -0.016222607778387237, -0.009169619550678873, 0.022427720044540383, 0.008193274540900877, 0.0026988607430878135, 0.024654821530656852, -0.042391163611911205, 0.019735784846564536, 0.06175356638321976, -0.0019320947974495611, -0.07614710480349597, 0.009375314063125684, 0.021470622359899185, -0.00735736378772518, -0.012285306810882224, 0.029267021000466614, -0.058815248782885056, 0.004458358913388153, -0.0035319704786627017, -0.0024715573183562785, -0.013047882299273339, -0.06086755110436494, -0.0032782602962555104, 0.03845649294323601, -0.06329241450725662, 0.061820793009582056, -0.015681273328124246, 0.02864253516444162, 0.011695290069678437, -0.05300881646817787, 0.01358895853188747, -0.0045505187073897405, 0.09753538100142767, -0.007086763210494955, 0.004094844617559048, -0.0024576174360031546, 0.04536376218594941, 0.07270730222045005, 0.027822188049564864, 0.010142924052812698, -0.04416136700888993, -0.02036679290641904, 0.0100050550161936, -0.005872656942204473, 0.003736558291467879, -0.035485497664983226, -0.029754831407842856, -0.01319026002799188, -0.05604451060018771, -0.015145678408839356, -0.048098801881366095, 0.013576712841621992, 0.005078143412632154, 0.0176448234643719, 0.01120057366176326, 0.021971882267519352, 0.11052218297385423, 0.16030602312238354, 0.08044041759754483, 0.13521091492604012, 0.16258512768090216, 0.10802882445150905, 0.15283646852039476, 0.03777172169174111, 0.06770724726645706, 0.07486905196585143, 0.03374545184525015, -0.028556789277728884, 0.006225430929701943, -0.0162341444648383, 0.002118283437251194, 0.006730885139790945, 0.03988265113286069, 0.0044216286820177655, 0.011206263750243403, -0.02694929822839467, -0.0012911609542131694, 4.964863398736846E-4, 0.02581731812881432, 0.01368062246414653, 0.003412127715780045, 0.008756531361673309, 0.005046719333839855, 0.06974339856047333, 0.03248687987272776, 0.11278750509785239, 0.08158620477678466, 0.050087831424823495, 0.10860445161127252, 0.0545028089875308, 0.1252446620366511, 0.05065999907346227, -0.11480571901842222, 0.0019521225105668452, -0.05042000479029891, -0.13344394989000039, -0.023153223801283148, -0.025522283593265, 0.06620385112565141, 0.056257681810919856, -0.027749615572573914, 0.02980403531780112, 0.0037391420061469874, 0.053238147123859915, -0.07299633528008885, -0.0064384271473930015, -0.038236689630797495, 0.045653679755512884, -0.07805712129362234, 0.01442620582932099, -0.004436616395447358, -0.05743354956722074, 0.018070356300378954, 0.05530633970495635, 0.03910931312797981, -0.05312128417673516, -0.16610519966320023, -0.07828405506343268, -0.08785336836313837, -0.16285374774855252, -0.0891051996274925, -0.20481917167516978, -0.15115101481497173, -0.11449587592884769, -0.029992077009172894, 0.012942044029380494, 0.00404589355217385, -0.06661926000012934, -0.006192310004574607, -0.026907349271687673, -0.02998756667707316, 0.06991524335331387, 0.04442070615975556, -0.03720388129162083, -0.03819220525158813, -0.08158257586023455, -0.07239194345908792, -0.10614492347750422, -0.055514290509882006, 0.02726779128500087, -0.0017223873436916799, -0.03654403693081309, -0.1460957100826662, -0.022584632252183313, 0.07616979437811501, 0.08602849066069009, 0.09079259726365117, 0.044451422620693494, -0.03325140942503917, 0.028756614528403536, -0.13650438429374806, -0.039608501969471945, -0.06203086691268752, -0.06438005258280442, 0.030074865547191833, -0.05473125739255536, 0.04830371815763669, -0.01822540712397111, 0.03080106984287174, -0.029923225132474942, 0.021542342429127094, 0.05610410572878912, -0.09293520817389808, -0.062286183674265146, -0.10069494407092726, -0.08752947132671453, 0.042399806951600075, -0.15222822758965085, -0.20077331917138597, -0.08508323768794213, -0.16381700854906597, -0.08676108534790329, -0.08483906649895827, -0.07784693378938391, 0.07795371493775621, -0.007863981884555218, -0.12189486753688845, -0.1627981186664129, -0.12760880838222874, -0.11762469946414757, -0.15523279238208407, -0.0419126061799938, -0.027035946708749828, -0.03291673223624104, -0.04895499815467713, -0.07171031562452874, -0.019577659903393115, 0.021993389926623336, 0.019202702778841337, 0.07422775541178853, -0.06829981729499222, -0.1586919890950421, -0.15285911718365858, -0.1544885848857757, 0.06203212559788874, -0.0894121281050886, -0.152908256351801, -0.20355852274287428, -0.017425589156811153, -0.05690097266327397, -0.0841049282934714, -0.035637073994318064, -0.22757163247884477, -0.27045638058278715, -0.19987264720281617, -0.24246255869503563, -0.14327199242619423, -0.1499587087912484, -0.1660069439725858, -0.12175437549139842, -0.02597376534823895, 0.014206734659202457, -0.05761003608292661, -0.07433260629925222, -0.004237023265871328, 0.02631757188429924, -0.03445416885161357, -0.010328312335179807, -0.06213511962728426, -0.13139235858244763, -0.26624233344957043, -0.2177938761675249, -0.1491667679417071, -0.1731083196461796, -0.10752572071535184, -0.18301788357579676, -0.07822300725738279, 0.10158858481783892, 0.07175133937848169, -0.08536903066933972, -0.12589527523124397, -0.06118127986626241, -0.11719857453518753, -0.2855804941198409, -0.1114421345464282, -0.010751033508633085, -0.20419824767734995, -0.10668494596132146, 0.017141302763917395, -0.0267513621447647, -0.07429003298337623, 0.061287229941363916, -0.025214467912147452, 0.009855409833994369, -0.06251635838478221, -0.044138372028864774, -0.06595819360840939, -0.1213086292668699, -0.19161939745079692, -0.12207906093049403, -0.13285924763676119, -0.12640084765544665, -0.08311705860107654, -0.10156583805742643, 0.04582563014845143, 0.21247886793232232, 0.23124282123645434, 0.22597441847280297, -0.058044166469935585, -0.09569400195387377, -0.24257880982290295, -0.1469397547876922, -0.06501501070000779, -0.09889917128394057, -0.10646467346705019, -0.015802300652142758, 0.12637667650428108, -0.024032462450854615, -0.02538309811705165, -0.06382004362453023, 3.20013541863623E-4, -0.06357273043575738, -0.0017985446059599168, 0.04500444300699314, -0.11617721111028065, -0.1327611229008381, -0.11134039111941306, -0.10583959716934488, -0.1035206338189596, -0.052641315893623634, -0.1675654867208168, -0.09097831227801831, 0.04541415458517704, 0.10853139310426002, 0.13761835313158308, 0.2709738983866962, 0.04663709664003568, -0.335692234884695, -0.40931335733459134, -0.3173743763646298, -0.1737714359827843, -0.03160010652113288, 2.841070885090605E-4, -0.0619569167413709, 0.13554706673236724, -0.0012769245187454986, -0.07682608795137531, -0.023963866189629333, -0.02895293733878856, 0.009568078365080479, 0.0014609057482785693, -0.010496952887269583, -0.0745430025621716, -0.10185037376027914, -0.09139593206137413, -0.08297232071140499, 0.036838449436229874, -0.07117517790584643, -0.13939317341915547, -0.1928998744362112, -0.18765041258431253, -0.10613275024141829, -0.05470323435921708, -0.06941926905785117, -0.2799320221409374, -0.4348271723919191, -0.6618967325569137, -0.5838013840696431, -0.1139061592845673, -0.011986412185233773, 0.13181199905644989, 0.16295056363284038, 0.26248791754709183, 0.2027620132554195, 0.0519916677145408, 7.465181842846412E-4, 0.02655383449698535, -0.006404885805223293, -0.02766571350958745, 0.03629478171628485, -0.01643645815759469, -0.1073155048167624, -0.08156152889190808, -0.051213912369935645, -0.025608468154591786, -0.08014227991978756, -0.15636701752525267, -0.37478064361815844, -0.23803308514295843, -0.19426863077273981, -0.08271940066083902, -0.10368561312020748, -0.1498391074422744, -0.3604929991390895, -0.5027133624834353, -0.3854164736363626, -0.1696540974970227, 0.15781894066925264, 0.27463050944727435, 0.2765876382144736, 0.41986055324912497, 0.31046434339403584, 0.032854057859716436, -0.012786636193248086, 0.05147220015283209, 0.006285198089315165, 0.049709220663930666, 0.0014896166619085248, -0.05015155943150276, -0.14330481627812963, -0.008528648995724718, 0.00110007240914602, -0.05273388810082384, 0.02019865120985649, -0.05625405453740069, -0.024300529157887895, -0.06708435509487412, 0.042253510362673656, 0.0881758845346663, 0.11387496413870316, 0.01952427795668716, -0.15888550298004295, -0.3300572380162377, -0.27132011574177556, -0.01921132743243766, -0.04972452656817059, 0.14043523192482593, 0.3388151548525958, 0.33468388975333957, 0.2724439685605593, 0.0727909974502797, 0.025001077317706153, 0.06265206185720278, 0.02949216858379943, -0.015606319366995747, -0.011056902768415342, 0.012692351372453897, -0.08157401258619391, -0.05900084503919696, 0.10382099122605515, 0.1261797494643333, 0.11118394987707736, 0.18506120108220597, 0.21201543461324737, 0.17291247003747898, 0.09414264889672332, 0.15882140791056676, 0.18552170734664783, 0.0654749372995931, -0.15631377414941364, -0.33530672823466035, -0.30347642095436556, -0.18364588530828727, -0.07808103172325664, -0.03269397086882726, 0.1768725309178414, 0.21958233100640237, 0.20441838388654068, 0.04861496496368426, 0.08964291582799765, 0.006456780217669216, 0.0024312106767431793, -0.0035836834364345142, -0.004892323483697653, -0.007354874033945173, -0.05127009746314924, 0.15387547378513144, 0.16613258285127314, 0.26174998733896454, 0.14232233811924702, 0.16766617394967318, 0.21318433949260604, 0.2050270712129131, 0.2131560031140925, 0.23850456125855518, 0.34388991689910303, 0.07389354237206165, -0.08687945191502255, -0.2374803652373893, -0.17539731176052872, -0.2359344770981668, -0.08177169890490588, -0.1130483653000356, -0.15776491955772304, 0.03703014960772786, 0.13321528600496715, 0.08768417468580841, 0.003666419283521275, 0.03842407402486777, 0.01979702631818874, -0.0361170093214037, 0.0010010531060739584, -0.016064694561881792, -0.10831312880387799, 0.17377621007713573, 0.2272804523891627, 0.1836493123396375, 0.08297466989592552, 0.20327947931997542, 0.19872503930414712, 0.20721545331148722, 0.006013428415569242, 0.06168452636766261, 0.44575480508141113, 0.15809552193944643, -0.08974688907573804, -0.08445124186911523, -0.0469733228429201, -0.13565737996903382, -0.0979018083798603, -0.07358942677150622, -0.014279704737334723, -0.01882676347657291, 0.09723495590731726, 0.1066708576145465, -0.01957770043184073, 0.011437956508003668, -0.05121993586534597, -0.05528974844729267, -0.004173437480755037, -0.1717637946596548, -0.11821096857740145, 0.0738616886071892, 0.05652585890327786, 0.03248046837419964, 0.16033754795140975, 0.2854535529580929, 0.41070746814592907, 0.21683583162485093, 0.007490124660953816, -0.05822007442998109, 0.2537468806482407, 0.1541366922832571, -0.1141277472395023, 0.001791214528007091, 0.12507067060764282, 0.0724801454903939, 0.04507240416797598, 0.059330609384667846, 0.0862345330905545, 0.05381332691041804, 0.2033205881269745, 0.11512340730375749, 0.055137516588669645, 0.026892631783708546, 0.027961099920526908, 0.0405675007311656, -0.021532844281418786, -0.16459023750023397, -0.07277320660503174, -0.05125395098030778, 0.024864645191042947, 0.22430385538532094, 0.2642620355799573, 0.3975475618094224, 0.2366863175235712, 0.005573806671816175, 0.11134099637743076, -0.11675168381724725, 0.22300784234651877, 0.11298778788225732, 0.052488639176294996, 0.1695857738034912, 0.10722343516565527, 0.09072890662779233, 0.0981620944967829, 0.03732162811909625, 0.12573279324057518, 0.15468391331600956, 0.20116755968450803, 0.044123577295601984, -0.02325248781044861, -0.003002730455170821, -0.01671289486517125, -0.021541873521030944, -0.022361384406819042, -0.10243241798719317, -0.08617693850254543, -0.01113925202703252, 0.0717083508688704, 0.2941073342467687, 0.30299033773846334, 0.37719589376074, 0.20900496060303755, 0.0034645450945940347, 0.03644384453256739, 0.08462596287165924, 0.18138874756795745, 0.17266285277483073, 0.1095289953857318, 0.09741294026778856, -0.019351662504356274, 0.09879780014408689, 0.16302080386257695, 0.2005552944512172, 0.10702317694847349, 0.12986398067021926, 0.05924052359426676, 0.04925089349221076, 0.01813288507542427, -0.036051193296938615, -0.025158567999974745, -0.03083829007459904, 0.016251317719153162, -0.0845984820570512, -0.07136006343469528, 0.007831781893180182, 0.19172421670780387, 0.35350530976382893, 0.33229144726335186, 0.3208606934922335, 0.18603239232440116, 0.0877110941136116, 0.10647027343330277, 0.0947121239248348, 0.2081002868290385, 0.0907235086573314, 0.11548209189390901, -0.07868855166974391, -0.03349019225831476, 0.06650299370187765, 0.053282474666256886, 0.11707794915270844, 0.09971194089815522, 0.19308370826105328, 0.15411198253142527, 0.029063219993050896, -0.01936220805577989, 0.005337645006358324, -0.04634875432513745, -0.02219128656940794, 0.01627450032177609, -0.07813750744578073, -0.03629147918147266, 0.18181304209492347, 0.15571635804447045, 0.37459441918783987, 0.2536594577198391, 0.29014998651554924, 0.1945773550183461, 0.032833233961020565, 0.028282682644056388, -0.012143213798769788, 0.09704479634540861, -0.07108308270150468, -0.17598894553979608, -0.03572807572597441, 0.02090955800951947, 0.04581025069410731, 0.0918741621416081, 0.12095811516476063, 0.0625420419765566, 0.0746326627379695, 0.06604086612796382, -0.012638155431727504, -0.027726396841806708, 0.01583012861831497, 0.03408070185825304, 0.034234910464783885, 0.05652466893913906, 0.011506175846662123, 0.0064102596980988415, 0.11007358738339161, 0.2453930130772295, 0.23758899889591545, 0.29829844263067795, 0.22888440566377552, 0.07992236703455997, -0.1780055692405744, -0.04022569689793431, -0.03772895899581898, -0.14397748144684763, -0.15421442189648546, -0.14619435233842554, -0.10314285855267938, 0.025624372636676062, 0.02327716474700486, -0.01148787839797633, 0.12161980453630407, 0.06100210337659665, 0.06966657902430574, 0.11107361161844502, 0.008068343045276457, -0.044717763791521946, 0.03669446624414868, -0.044691638620022844, -0.0017018112831816434, 0.08522557397701601, -0.028914531108115045, -0.06410742815095694, -0.07148137009691802, -0.037876047782722966, -0.054261663064056616, 0.13587466960777006, 0.1288141588639679, 0.15855645009647065, 0.04308824410580311, 0.021021023443632086, -0.006304843393664163, -0.15032537432554702, -0.15443426927321535, -0.09842963181218672, -0.19336681136709383, -0.17680072202368172, -0.14919561860519803, -0.09879494516611924, 0.00623101429922981, 0.0322338416405929, 9.739492915054059E-4, 0.02608206557930247, -0.02224411771051311, -0.08206321856727333, -0.005999150280089552, -0.013098265044682842, -0.02933899047000213, 0.011393677472056581, -0.03711374503141596, -0.10190432211910933, -0.13557959926454513, -0.3014477980421611, -0.2205284222708143, -0.1913457432180885, -0.07340241466763105, -0.09498622798794877, -0.09657726374136208, -0.10851243443415613, -0.19120597612949145, -0.3267555615525629, -0.3329869850288751, -0.24573206449953217, -0.20469407704748355, -0.14111536298153649, -0.07253434812648517, -0.0019811078488872163, -0.084127937680991, -0.10509274502400205, -0.0042190360022206705, 0.018214487340649173, -0.04320002262971026, 9.605328776808893E-4, -0.0381669039278646, -0.006331027463046687, 0.0020764208369100723, -0.049254732060416265, 0.010937832832709124, -0.0901023664368132, -0.1794476084511976, -0.14774539195858408, -0.18577037888852882, -0.19541948950461938, -0.23465858197607983, -0.25288493629459, -0.3004645308231512, -0.28443927780869194, -0.3682583530086543, -0.26742888687723426, -0.25487026500714133, -0.18383378935129444, -0.17272589597595955, -0.13061447030872175, -0.07921851456528047, -0.06804605201499406, -0.062407176696857435, -0.04707076760556344, 0.05844411751089185, 0.012142111865122016, 0.017033612383661613, 0.051729968858521186, -0.014844939845291843, 0.018431155176072852, -0.033447318752394734, 0.00756767274511428, -0.036371864580032484, -0.03654676045899427, -0.07040246716419697, 0.011615499367864088, -0.014024929053126111, -0.09517284579365275, -0.002067337765316128, -0.021399419210719615, -0.13702412336422717, -0.042741050085287814, -0.04867474008282119, -0.008036137992606695, -0.0682229054967414, -0.003391783703558043, 0.02805730900030596, -0.03882983701777378, -0.011562176896970543, -0.04095693182551222, -0.04043124323843707, -0.0035122597847054645, -0.0036320684632267183, 0.018429605902285612, 0.045393450562974155, 0.04692967808247211, 0.03412808429191135, 0.045946676647263915, -0.04484644661986562, -0.04841044116679656, 0.01938878906398416, -0.03102673112614669, 0.04322230492793836, 0.06657952935168818, 0.04574667318819158, -0.016271264274465912, -0.06650023263952176, -0.029794246939273194, -0.03294316839068118, 0.08979395299148234, 0.016235563981235605, -0.02467412850504643, -0.02875865026685138, -0.0027713723095724044, -0.04683163777880814, 0.015182035204779782, 0.06529773609477775, 0.029562161455466793, 7.059053130609706E-4, 0.004470589550044784, -0.07931695430978472, -0.01941694814128899, -0.038692094444392186, 0.05131519102582236, 0.04190961081523117},
{0.07070407377566999, 0.014202575075879352, 0.0033828609090924043, 0.024288623231656915, 0.04475659569347966, -0.021369791356977842, 0.02389420696946874, -0.01123937866704781, -0.05018149182363145, -0.03001388325001133, 0.004432746990406953, 0.0456383527070563, -0.044400368844460095, -6.37640740651698E-4, -0.03571340695365088, 0.02433900638322538, -0.018696600913862573, 0.04614533212185196, -0.004710532627960601, -0.02580011710976898, -0.016714263127146915, 0.02946561825630517, -0.020118070683507905, 0.017361714847685516, 0.028518931270458965, 0.04456346955210557, 0.049973674581839364, -0.01238848448166319, -0.05789058231828452, -0.021186253038268453, -0.023928963979130077, 0.012414990830603934, -0.010442372506786136, -0.03845871007699466, 0.005352082678259406, -0.05926478108881051, -0.004478623410146285, -0.005315436204290182, -0.055388837784238164, -0.001767994378292068, 0.024926157361702228, -0.01776140416730622, 0.022696445422296114, -0.008860878624764158, -0.06260061806418654, 0.04457148801105765, -0.02248473220410457, 0.04333880503088953, -0.023897312831056727, 0.017482110856541045, -0.002395398184354238, -0.019446627240314183, 0.012402716446546435, 0.021103976035024816, -0.007547697951051038, -0.04388558713938245, 0.04973790704418525, -0.013167366864463894, 0.005044249747435558, 0.009354415991283331, -0.003924102100176562, 0.07499398789277778, -0.004310540031294933, 0.008628413539549065, -0.021361713419053137, -0.02822693949371119, -0.01235121086940725, -0.021768661735752325, -0.002701181907785457, -0.02932950313660116, -0.00521374591143679, 0.04424644598238578, -0.015003937447716293, -0.0010618272869859808, 0.043190363244533604, 0.03755768293041462, 0.014162352147622471, -0.020696778994905365, -0.03895322730420366, 0.008421868855563617, 0.03292038921051597, -0.055975981853225644, 0.09442510791524568, 0.049178916270192795, 0.044554239005395145, 0.014096239652051746, 0.016763572586913193, -0.031783762707395156, -0.019608416901644953, -0.010664388758921015, 0.023378210910088577, -0.03302078130174075, -0.004086626222797101, 0.052629610147268836, 0.01297035793478396, 0.0054879637967534655, 0.015042354777766923, 0.07229215796163478, 0.04170708330973862, 0.054762122894694676, 0.02834606248316662, -0.031002430195398615, -0.0442536884154799, -0.059784564527755275, -0.09252018389682645, -0.02791411242990546, 0.0013113642008020416, -0.02998837880857427, -0.005874906917959126, -0.02191586205107918, 0.007600382448864019, 0.026754242581019085, 0.06509710826307116, 0.027346007142804094, -0.04248230241577681, -0.05722080901426244, 0.02757616194795257, -0.004206574984814756, 0.06944450184058992, -0.004756637831216586, -0.014060654172007822, 0.1420779686602732, 0.10953863570630912, 0.1415914455868095, 0.18050734518427702, 0.24724828814350175, 0.28712800951975853, 0.27086438049402894, 0.25635283062976694, 0.14824782407381484, 0.12851398281188275, 0.12717492135351374, 0.020784991350373108, -0.07225671356333419, -0.02966230781107103, -0.07455093720184627, -0.04212989307003822, -9.394274512946472E-4, -0.06513856623088182, -0.009751692988990151, -0.006546749598327536, -0.03582953161375516, -0.02519336812166543, -0.039814425741470996, -0.051204614687764376, -0.0218545423354251, 0.08340234159501282, 0.0857411195382736, 0.004967591325901751, -0.0035494147077947697, 0.13129734139166824, 0.06042993188009242, 0.09900840552269963, 0.0374622113785178, 0.152322091000366, 0.017776180395022757, 0.16577275604699887, 0.2142583150322556, 0.21777030545531545, 0.20441187121501952, 0.13599105447729454, 0.11976573202725471, -0.009254410004040555, -0.09709611115775803, -0.08275712337467436, 0.014485871487287683, 0.048671824712772274, 0.022963324021440596, 0.0332116375741714, 0.014712459190819187, -0.0074961919646542455, 0.04054938774140983, 0.008196839833785692, 0.019070595616505634, 0.005243956355108705, -0.013353755153698094, -0.05991386738200019, -0.1354075191129142, -0.06271205003210042, -0.07636779528002527, -0.16535518547933825, -0.059508252399526486, -0.027629473381040555, -0.04209714742373806, -0.08962131848144705, -0.17611288445134468, -0.03396941308603037, 0.12154675334333351, 0.16798379689343476, 0.10201740974549933, 0.021571188212906066, 0.04191709668292555, 0.09302524372792682, 0.013542848516561134, 0.007584594812291469, 0.0278762619570053, 0.015694182501050997, -0.00989119010902868, 0.008462787043288282, -0.1096158552199586, 0.025015169008282524, 0.07794652291378211, 0.10727854013742644, 0.04889542818712241, -0.003121539071356351, -0.15511724403185712, -0.10209380580995621, 0.0022834466698229763, 0.021159536028544892, 0.09192851376435011, 0.1069299177822965, -4.6893801521497567E-4, -0.06354562487989401, -0.05137838920490633, 0.15004436448753758, 0.13391431247079738, 0.050098118985104315, 0.015202615976516351, 0.07985728226465269, 0.10625967211203907, 0.07844976195580453, 0.06411159599685042, 0.0036244264561627634, 0.015861765687428083, 0.010795430075867491, 0.03683679045953984, -0.0027041684353109425, -0.016105794103349023, 0.11838693951784146, 0.022613921058057304, 0.11880168597036464, 0.026513200707464147, -0.12781589651912312, 0.011922251105908173, 0.05171032172910849, 0.17255472974777122, 0.22556009276305514, 0.3383364285149722, 0.2308113610610461, 0.1411427581335009, 0.1945552225876471, 0.12343482221891429, 0.12080181355291592, 0.08301969328849125, 0.08858873712183638, 0.037138061089102434, 0.0276067146433342, 0.07291982516436912, 0.05499347236320748, 0.08560605678499483, 0.06436838447028535, 0.03561770231971465, -0.05231420951579996, 0.01086354064018007, -0.005966460542931247, -0.02717068408296214, -0.006719342527159021, 0.0497513766743465, 0.01501004754761746, 0.034128258338306225, -0.044190528776157145, 0.06765838260028621, 0.026596597435020627, 0.05421571155213655, -0.01626543099749937, 0.25008101809764405, 0.3351062259030663, 0.1853571038930947, 0.12199851720211048, -0.027163045624907792, 0.10416993473978599, 0.0458250618160198, -0.03935002550018471, 0.07481240244889972, 0.08272160637312129, 0.25624139189632233, 0.16334003270247152, 0.12614789538437854, 0.045746010046040016, 0.041045596607376174, 0.07597060557297153, 0.029169271174284542, -0.005987117958626034, -0.036217489549392766, -0.036145475569218384, 0.05152337467375353, 0.04807825304616284, 0.07745055884913239, 0.06344546662948079, -0.0853556665370762, -0.03337136886855027, -0.08138245244077712, -0.11584931322150811, 0.11842168554288164, 0.3810487837559546, 0.16158324597927, -0.08375575048603626, 0.04328609134317733, 0.00414501685751822, 0.020827892035086032, 0.005226124681415185, -0.03358003437508114, 0.07015803381274886, 0.1972360248673056, 0.18765077287152446, 0.08861606153799886, 0.01689220558839792, 0.02860098238960088, -0.06123097516293253, 0.03798264309195962, -0.015687398075547216, 0.05532604440574657, -0.00512383465595446, -0.04173866516672045, 0.026258129582358597, -0.031308502843920095, -0.04878467079672665, -0.08012229898546103, -0.1487874303559713, -0.41447380240783377, -0.26150645592544003, 0.05814823486420002, 0.32301949643600636, -0.1925153920818285, -0.26465599342669766, -0.20704155264816546, -0.10464092364045635, -0.04196342538811285, -0.0518640100247567, -0.015665022407605797, 0.06918431708487685, 0.16447101056522043, 0.24163871808036733, 0.09144673903319299, 0.048599717363548865, -0.044280033860756476, -0.0030396830243977256, 0.022437017411282918, 0.04561133629726157, 0.021929981728839858, -0.12317436748015882, -0.08459254313728845, -0.15171528722783922, -0.10363780097605271, -0.189219072741505, -0.1453098450065941, -0.2846464843471686, -0.4827303235879806, -0.11238369145488439, 0.21679557971318042, 0.19478366354972262, -0.35567378035408875, -0.4901892884988561, -0.2732049254022224, -0.16946157275978488, 0.006252417170329414, -0.02250551708253695, -0.09412020813490213, 0.11636943868144822, 0.1276993527139894, 0.15822425013822075, 0.04724683904529787, 0.047733125131176925, -0.012203478184347574, 0.05831959393458082, -0.019689423733832707, -0.007514217334999628, -0.0015513147896645443, -0.16112971506838436, -0.19298073676584515, -0.19583915719700062, -0.256439953392753, -0.19806985674715802, -0.16003949329828604, -0.29285373688288163, -0.30812146514177785, 0.1284392010926941, 0.32095162148528755, 0.054471564827636564, -0.356121628001084, -0.3559141704721115, -0.2739910593723086, -0.11311907665766029, -0.10114821399936405, -0.2570992861320828, -0.2665501025899188, 0.0049165445190138225, 0.13851493626187242, 0.15241987978879437, 0.10100416422202914, 0.14719593155763566, 0.05968431095918694, 0.05320156497995161, -0.0349021862673223, -0.01148429821138168, -0.05812599292414942, -0.21314334174603455, -0.2999178369832654, -0.1916820344545379, -0.2237635018004277, -0.13121563723947974, -0.08584524795888404, -0.22765938099372685, -0.166599142666646, 0.14068798209746503, 0.35177971541088926, 0.07543230379009712, -0.30181832256148516, -0.308390124099346, -0.26384506640656213, -0.3008732434843944, -0.42957428267233344, -0.39106934026039364, -0.27032099428806544, -0.07142696350675236, 0.02030437829011427, 0.12132309308243994, 0.07575901860261817, 0.058793234036402166, -0.021371601109213788, 0.02902400827455652, 0.03813158271283538, 0.025669742924320116, -0.008365941318714026, -0.05961106678859378, -0.14623462110354096, -0.16008068561303232, -0.13025250895178014, -0.21383538844619698, -0.10793725603556496, -0.17100810761456706, -0.03902369713387908, 0.30709391795781416, 0.29469129096507035, 0.0962703347447873, -0.281364920335035, -0.27829354315223387, -0.3252071250853669, -0.36600087356152766, -0.3698899229487731, -0.3527339217468737, -0.2968683142883237, -0.10008609135307625, 0.038884460279303805, 0.16020828904025458, 0.08858682324709294, 0.06325832460347283, 0.012466078375071493, 0.029395483925747312, -0.01764128911240794, 0.009294371502813118, 0.12843514768185887, 0.11621250211820021, -0.058927099025238586, -0.10675820537761785, -0.23162031584177373, -0.2681250132943401, -0.11699430809361273, -0.045348912261106614, 0.05471229215715729, 0.26164766066885586, 0.3109128587953446, 0.07064058836835782, -0.18219138636015553, -0.12909052307731705, -0.20127328361913074, -0.19270029384604737, -0.28366654543993686, -0.16316764853820134, -0.06873128243992899, 0.13618260011219652, 0.28708950955750606, 0.2768849412006492, 0.11319963872431509, 0.002918550849313302, -0.005738034724771415, -0.03549702780458915, -0.01863791707143441, 0.010199773724848009, 0.08593892541019592, 0.14054793985000272, 0.2140245812080958, -0.030547810018447443, -0.1368153318722215, -0.09562071085280076, 4.921509167000504E-4, 0.10991741788037025, 0.14186014331206676, 0.002976066254448655, -0.03343461389527344, -0.09270908396748187, -0.17132289582137517, -0.07295315514593582, 0.013787051509866697, -0.16654003250001329, -0.06570141728684761, 0.04209542402336904, 0.14931028004619978, 0.3312378088471582, 0.28950022893256094, 0.2961985330126181, 0.10399815989448123, 0.012602374510797867, -0.009841863627327219, -0.013258324738720847, 0.057216478341307504, 0.009004830414931475, 0.04437386907442195, 0.22659076777250528, 0.13458476598799662, 0.17661275279775807, 0.14766532460316925, 0.17142166686784746, 0.1835969187719331, 0.1398317034225407, 0.033885568338787656, 0.05810910040226122, -0.10601854897979701, -0.1646444898233347, -0.019903023247453584, -0.013786117335979956, 0.07356689036373139, 0.026006045516265928, 0.005459388903330493, 0.09897220328370049, 0.225226896560983, 0.4272937181089385, 0.34365688178137954, 0.24677714681196408, 0.06164204872485379, 0.04566065122545234, -0.025135742071218214, 0.04208057894827952, -0.024580634942469936, -0.008617720775385898, 0.06724241847966489, 0.12209100872619887, 0.24495935790752757, 0.26337051493090946, 0.24056732142238071, 0.36461604144160037, 0.37118738358294606, 0.20609407189016754, 0.11659449305748265, 0.07358940733254343, 0.09894166755138735, -0.041189819429878004, 0.02844081462308572, 0.08730720615685883, 0.2611109162986608, 0.25332559247621983, 0.07130274367263165, 0.17662403470577007, 0.3838109358933964, 0.4112094081350897, 0.2574765705824878, 0.10284970144992095, 0.052069325854310525, -0.0025936399458533323, 0.021466015504836473, -0.00245410181702417, 0.0569864901155248, 0.04951579038759976, 0.07628618899433932, 0.12645105807141677, 0.25364641804378846, 0.37891290193714877, 0.36836056317709037, 0.4124444712898866, 0.39731233696933427, 0.3633441777885006, 0.3441468871482473, 0.23973020077306634, 0.170188377744575, 0.07629089309004984, 0.08584172507267523, 0.1481882806093394, 0.24622193485133131, 0.27020406265389235, 0.23734002548195304, 0.27438245190571947, 0.321088922354185, 0.21734444870693032, 0.10196259718647566, 0.12913803178112318, -0.023129422614331884, -0.024915058872117705, 0.013217910108488613, -0.02288689923943456, 0.015356651328145414, 0.005758589149102902, 0.02398109098176156, 0.1713288950614588, 0.18680685134931488, 0.34235162337725694, 0.2595799930704439, 0.22003458394619313, 0.13069382850837866, 0.1748782245380104, 0.3379045292013549, 0.16317110845315444, 0.27714902141278064, 0.18642779884415603, 0.13745600655164764, 0.16171231818658977, 0.2585052817931546, 0.21280357540654002, 0.26915125903198994, 0.2505734522517514, 0.16398346339720846, 0.08634320598183003, 0.05994437063483821, 0.02061246658452812, 0.04464866613101739, 0.014868038832098331, -9.230353912158906E-4, 0.027171587978793463, 0.02763998386893986, -0.010942722235850277, 0.04757436576359958, 0.13564066455322116, 0.14419732033627655, 0.1309836841728347, 0.029109034764003443, -0.0883371789826664, 0.0010232780589773448, 0.02698103972372494, 0.14092338759745054, 0.14527248619561975, 0.1549693264847993, 0.1434992057846725, 0.05018709057704981, 0.08711710891577833, 0.13806373876085365, 0.21195492809599084, 0.16965794224437097, 0.12425448756237568, 0.06634881682774456, -0.02212966668142053, 0.004132837095458406, 0.022283132900256065, 0.001262850999324741, 0.0045449945540018966, -0.015623469058519879, -0.005397035122790398, -4.18082580189582E-4, 0.08187002616726595, 0.01630762290311987, 0.07611167469862709, 0.007861344317069913, 0.007430643107407, -0.06468201536621357, -0.06722671400495456, 0.05654993293586912, 0.005968284955647671, 0.14340113114886965, 0.1459175497270001, 0.23841128981447562, 0.07348411277645438, 0.1619639175059527, 0.14012940329200532, 0.18439908277289743, 0.17299013689846876, 0.150143816286484, 0.02542708352364342, -0.09555762853777075, -0.03079807042081552, 0.021945148143505226, 0.041492942767468746, 0.009872009891864047, 0.043760876473908195, 0.10198420639513812, 0.06260510097087757, -0.0020842685491189667, 0.03637799425302113, 0.016918133158915064, 0.008945626169367253, -0.07589798898487714, -0.15752176073713653, -0.06663829651871729, -0.04154657201572043, 0.16996335530793708, 0.11443996376724401, 0.062409353648352026, 0.1473463961959853, 0.28504740564193404, 0.23798267962472194, 0.14978091038296484, 0.1259765189479698, -0.02285606172067284, 0.056675332006965014, 0.06212560020896901, -0.06272996343618523, -0.13125370262709923, -0.03101284778467927, -0.013780329298810203, -0.036471622037461474, -0.019143720680906223, 0.06556063815149957, -0.0046270617407427606, 0.04214596235528566, -0.02658777429647898, -0.03957823959481964, 0.028518319422075052, -0.04194598150951246, -0.1006629557076524, -0.11843357842229786, -0.06749430641695696, 0.014527536572272463, 0.06289822893699083, 0.17762641193576628, 0.09167113644028553, 0.11310982598802709, 0.15071317842932924, 0.06760724110069827, 0.06928919902429304, 0.018464528322765787, -0.04396791493747766, -0.08311312148301687, -0.06912180529542195, -0.18370580785302457, -0.10597507997903852, -0.09712757468912454, -0.002880895518384322, 0.032696767154442294, 0.06265327333895912, -0.02666936921805914, 0.06398698463125833, -0.0082711780709024, 0.038671362502684666, -0.022738877668821707, -0.011140348471263545, -0.029874655238398395, -0.08250669436600058, -0.0877606092127045, -0.008327262765360815, -0.07898701132871025, -0.04308739236040032, -0.08328098457777333, -0.08125585443375177, 0.029141266175873797, -0.011697170041368606, -0.1085021165018189, -0.030435926335709226, -0.05563848551665611, -0.020601188425819573, -0.017871138867625955, -0.05750042445724275, -0.1007529831246515, 0.02263868626356253, 0.0013268302974691081, -0.007624432897342173, 2.562799648663456E-4, 0.018626621547578676, -0.035998783058885056, 0.004687131221111192, 0.007686433887629883, 0.016053955536873568, -0.027242029290879818, 0.041406238216718884, 0.08443955794520883, 0.05513159300473596, -0.03717367398894813, -0.07389293878533275, 0.0503624195807343, 0.05950644037130193, -0.029060503037234547, 0.02647022746852346, 0.047544976564528774, 0.06258545752378612, 0.007720426358249362, 0.07234467613586469, 0.009621582758130982, -0.015304136261985358, -0.040154667218512435, -0.024399704071961206, 0.054975918032480836, -0.017290960328990673, 0.029570998257231935, -0.02341752881608492, -0.021007185448734696, -0.03743210745829395, 0.04907287477608952, -0.10534084963289111},
{0.04138947648030959, -0.054446307843629825, 0.04016923483249953, -0.008937535903871127, 0.0376904457455431, -0.011503871849124646, 0.004193184082777255, 0.06258748660785338, -0.007807214096954513, -0.05101682397074384, 0.04837668068333161, 0.025511793334603745, 0.015069799884886714, -0.02905651531228462, 0.041274910296382666, -0.023666597638276044, 0.011673307547587124, 0.025642150120847893, -0.0011598536402100577, -0.024627508342963293, 0.049216723784177296, 0.042506791436653826, -0.09694969477994102, -0.02193754496273525, -0.031065466097653104, -0.02603244962184009, -0.0676313103378315, 0.019971793283725087, 0.009614099816442252, -0.039347985105012154, -0.012811926990502329, 0.014546522448807886, -0.051495409315965746, 0.007985863604997966, 0.003603290467935274, 0.008436983221383903, -0.002244087265684447, -0.0011514174404063415, 0.007539418615497455, 0.020404851445391843, 0.039586707025178414, 0.020445931687798496, -0.03239631249656675, 0.04541756064242506, 0.08316268780397768, -0.010160531512756227, -0.05541639480896166, -0.024493550476673197, 0.04457201984436657, -0.05907773840517448, 0.004194843392219784, 0.03138257494892583, -0.009309983931181624, -0.015595934698390868, 0.0032932142836861605, -0.078347861367799, -0.0239525615452629, 0.002802530365989759, 0.06682094441056345, -0.020914570583273142, -0.018323258505129655, 0.03707747406660206, -0.0038984881247449608, 0.018520409681204, 0.03597126784366363, -0.037822589146795725, 0.028053218250369633, 0.047256791140746504, 0.03637619626788733, 0.09726491867023972, 0.08842836722638511, 0.06675029031009524, 0.03930957815112902, -0.009171006304374864, 0.04696919731349234, 0.018376350325624104, 0.019018011078917423, 0.004885838223044407, 0.03256777031347262, -0.0018436366538291864, 0.06183904928335494, -0.059445292868891, -0.01814034006156501, -0.04124847855200385, -0.027175610968048065, 0.014293000335790533, -0.05149770454526472, 0.005337635057601344, -0.03628386692775184, -0.010256614334516453, 0.04951268175592603, -0.026663088486873526, 0.14266647398412052, 0.06637503155882121, 0.03802542263513815, 0.16454173516244125, 0.14961846610291046, 0.1976421619414562, 0.1404597452325364, 0.23503195533156934, 0.16438931637814452, 0.07724369853572433, 0.0843305421990784, 0.069343252487759, 0.026488171515032435, 0.004741428528538204, 0.09164278280231528, -0.07671220971063748, 0.04293323784575039, 0.050368754937770606, 0.0075971510903949675, 0.019906901614085815, 0.038247659094341094, -0.03328643229068422, 0.03199532258941963, 0.05861706446498609, 0.018216517363871945, -0.038061746969641, 0.047536851881025306, 0.07048371109444558, 0.11796314008555964, 0.1643610309096546, 0.2161973825695643, 0.33279263085456007, 0.30018191414831896, 0.34916114236398355, 0.36254328850880363, 0.34398603773393643, 0.40690025790265555, 0.21135902980077514, 0.2268998129905795, 0.16035338285282263, 0.09882271241560088, 0.005380643013603723, 0.015172370902111237, -0.025265541807613874, -0.016854889253232495, -0.048099117823680856, 0.03863189475100724, 0.046549123017194605, 0.05730376536260157, 0.03458956894429246, 0.012988009391500641, 0.013139055344913554, 0.04160987631814427, 0.062421463966786994, 0.12533534363165982, 0.16261932810714405, 0.1597947830082772, 0.19185943894524551, 0.15995260119264973, 0.18297079154944657, 0.2173301585386885, 0.03479493792997776, 0.09621996015807652, 0.1474942126261861, 0.40417039220410705, 0.2583625956730763, 0.14931497413529893, 0.15018694192174745, 0.1361680253471915, 0.07319467135985491, 0.036067748232817984, -0.04211973321067191, 0.05360733195974367, 0.01518000886827317, -0.03878530016286771, -0.032138880976791726, 0.0066674368556980754, -0.0472977736651559, -0.00599627726116237, 0.0027841513498494015, 0.0420362653930297, 0.09842117689830172, 0.09536255212866611, 0.13951173194268104, 0.15023589969354245, 0.21013127369749104, 0.10916880388028714, -0.13861754887239294, -0.23593350883032177, -0.1698850500809331, -0.11472413422181568, -0.0499297889283565, 0.0463397016807045, -0.04534155049617491, 0.09179971323938328, 0.02000153587026648, 0.0701548414902579, -0.032540032171239054, -0.0015723814710919858, 0.03739643106354025, -0.015446955720670362, 0.07061769973514916, -0.033474777917632995, -0.00847778092094438, -0.020616400489745328, 0.020123097324347937, -0.025256300511411683, -0.00807967030216664, 0.11003904851697188, 0.04164650257122822, 0.07712663583374714, 0.07310472704935589, -0.0175351096082613, 0.011700236780100558, -0.1044458986354705, -0.28533610403194615, -0.285629489466868, -0.34612664489876455, -0.05435590506072989, -0.07070656602623972, -0.07440028781054611, -0.0019369543751390317, -0.12391994904606905, 0.004670834925278737, -0.027432391986306696, -0.05250520371494669, -0.04968020969031155, 0.049310263107715746, -0.02485621103822343, -0.10845233938303125, -0.0239787166402433, -0.06128956480848144, 0.0015491201912422958, 0.030634217842168535, -0.012343735193430981, 0.011816477637078064, 0.043186200519853106, 0.11361073521428619, 0.1682391851150522, 0.04253835155360195, -0.22073913502546644, -0.04448222620112125, -0.17039202113138033, -0.1896117488913498, -0.062222343363495636, -0.23521640420071557, -0.25207463290937027, -0.08921771073856467, -0.10207829858387384, -0.05493617789217073, -0.14131318760187422, -0.23301419468713624, -0.098315443449178, -0.00788714710865037, -0.03956216180625131, -0.06844269543238025, -0.04407312831158534, -0.01710662411415279, -0.039369272082139806, 0.012087344889701904, -0.005597577450079547, 0.06928561569934537, -0.02219616070531621, -0.07718954351874588, 0.18630829821397893, 0.14725542262478442, -0.04855606085292569, 0.020840985227896038, -0.08309485219730314, -0.16963745389425425, -0.11110068984437839, -0.18702740205457785, -0.25643103608122786, -0.43209779429819106, -0.3004746819838087, -0.20446142222727415, -0.1019577522710047, -0.22492128329708225, -0.3114088839929531, -0.26566804994211507, -0.1725248615685255, -0.08222105196029054, 0.04806094197667222, 0.017188713154998043, -0.08918737909512582, -0.024161851444481575, 0.0495451177473803, -0.03126624582266627, -0.02354891523014919, 0.035489162114462215, 0.05067670173181459, 0.020472785615315105, 0.09457364925893792, 0.01331911580890046, -0.06452555330878063, -0.0038077929330488135, -0.09580835410774516, -0.21039617275317687, -0.1479461197392197, -0.19777134097251714, -0.4248863930111512, -0.2783132448458011, -0.20719033141330861, -0.1487711589267412, -0.19518078271685418, -0.16718402811482957, -0.3077390344671642, -0.22430551606632043, -0.14913791437843746, -0.12600051873154638, -0.10764794131421035, -0.05339190174685338, -0.062444058126185545, -0.09544349600173531, -0.04793244624508302, 0.029988277464361723, 0.03164692886898987, 0.013219446971670677, -0.005101458092090561, 0.01686548628958811, -0.036996479315327215, -0.14840692830529728, -0.25294813392872884, -0.10773602043603477, -0.2143687204964241, -0.1928354305885443, -0.048148955601183666, -0.3503344005119183, -0.297721213039246, -0.1848055045963072, 0.03717039013180644, -0.24181222380471246, -0.15209511355905617, -0.2628883070396339, -0.3041953347790543, -0.2309010209664902, -0.30742002322555895, -0.17326831225324962, 0.02397987747018356, -0.0030881904561584537, 0.03600601839378976, 0.0032889371498045, -0.006372802870305835, 0.09520907814092992, -0.020825237164195962, -0.020095120591241234, -0.05080435745724176, -0.03485963551779277, -0.14916464593029777, -0.11744569006073954, -0.23409162338639317, -0.1680614909745951, -0.1469574906320902, -0.19781591402181048, -0.11265390071525756, -0.14161320126251942, -0.10071062184366868, 0.10938153197305493, 0.28237075692920766, 0.06264628370768527, 0.10155226344475644, -0.11800898796929842, -0.22378260497065364, -0.13476677016366326, -0.2359939152531796, -0.03384980685106172, 0.05466788803664448, 0.16214627344128685, 0.1739795556771974, 0.01276425270692706, 0.054255067803746046, 0.04214458705863444, -0.008477990676014631, -0.02870624752885855, -0.01787138906405232, 0.06712172061880103, -0.15287175423603871, -0.28500603216979253, -0.2058338590402239, -0.05819008278290715, -0.058470813921778456, -0.0848803483416673, -0.08499489431210035, -0.1482039520238469, 0.0576543311980108, 0.29631964301289504, 0.2320322151703924, 0.27340301793827587, 0.18499501712386515, 0.1101585512369327, 0.1605824087649951, 0.06364326061576259, -0.08910208597758192, -0.005907278839207603, 0.1059622824875309, 0.1577512392309295, 0.11016963319787802, 0.020920585442842102, 0.026580385835939798, 0.0025938155637041374, 0.03217816962543224, 0.007861189454576272, -0.018488610314117318, -0.03082043621834968, -0.11914134324011505, -0.1679382822067195, -0.0522638954622469, -0.03184546191565973, 0.02413459651148447, 0.031628336409830544, -0.09822078384214727, 0.0196220088082167, 0.2607159093889517, 0.47221370351640607, 0.45148444060848114, 0.13848679893336738, 0.10529869841454004, 0.0035627738742761627, 0.12050781606957149, 0.24548339531191057, 0.0648692381901878, -0.004247197641306706, -0.0125916945593642, 0.18624215735946373, 0.02976218740450669, 0.0484644736030192, -0.0408878670225013, 0.09413505562888091, -0.014160592527929748, 0.016509008666234313, 0.021167534481609126, 0.06051127491610064, -0.013801292196315684, -0.023700040283097575, 0.020101159366355165, 0.11388761587810031, 0.1857273651319557, 0.07250076604524221, 0.05366790448624198, 0.14687456566846271, 0.3420294133794959, 0.5500322743941827, 0.5665859722617717, 0.07262218515297346, -0.06233387379477176, -0.24350384964693297, 0.01193814775157462, 0.18593987033107567, 0.055611339133633614, -0.017649810878790653, 0.13318542862009827, 0.11246040423312456, 0.05739348611359399, 0.048613151616480034, 0.017579579993005516, -8.636674005049268E-4, 0.020864793441099382, 0.06065489003240862, 0.019693734291014925, 0.04156136437298976, 0.010349000561085411, -0.007350427162635375, -0.007500247681394365, 0.04135348200374125, 0.020091388074732423, 0.14523483813170582, 0.1515419863998071, 0.22913495519891353, 0.2689829796851931, 0.4235739451975635, 0.3532653607706689, 0.08512178766211836, -0.09387959230031505, -0.15782676114171598, -0.07451567127127422, 0.1664701830787806, 0.15011798900027204, 0.13448638791836626, 0.1617861091541662, 0.1219421195774467, 0.11763348201551561, 0.1005320377707699, 0.012636353679139855, 0.1253544764703761, 0.03361849661151662, -0.03152464176278988, 0.042283309791401706, 0.1218085378890895, 0.08051078029806283, -0.009461805762480097, -0.045664722270370474, -0.03934279644343447, -0.12033748774607363, 0.02958548254105036, 0.05567067183004414, 0.10824988484209823, -0.03352007299618517, -0.007273149068539724, -0.009132898562723878, -0.1703777145784773, 0.008497748223967753, -0.10449986306473567, -0.07038078407729247, 0.13457714859601394, 0.2190134219865236, 0.14007891888113724, 0.2456142672868143, 0.1625228890873485, 0.08778829740655539, 0.060346308541352485, 0.049801938417809166, -0.008395404797500367, 0.038149884165608605, -0.00997974431474464, -0.0033218146791797053, 0.13054812153373951, 0.01023629829574572, 0.09123505460308115, -0.03024763211527439, -0.11118891509437182, -0.016109293044269803, -0.014187421943479906, -0.055960803107583564, -0.0982177365466351, -0.08900271765844979, -0.10217882500190006, -0.16737253232613503, 0.07708611118612449, 0.2266393906140142, 0.14239298118703334, 0.09988953349076395, 0.21506144896652918, 0.21416513767487846, 0.23417765360127343, 0.253304355793369, 0.2111818226665572, 0.13795337733342514, 0.021357515169620544, 0.007107103576805065, -0.002142021811357168, 0.024008427578304323, 0.04426987375428304, 0.022733819734718514, 0.08288767371949321, 0.02458211735207702, 0.14928629195190665, 0.036959024008749244, 0.10241711396244943, 0.051728877813955944, 0.2000667426216108, 0.12387501252517846, 0.2128237320958765, 0.005229217832525843, -0.03577836205340791, -0.043402180060080016, 0.26327890808914056, 0.2828654222358743, 0.2793444732641096, 0.12811003998393858, 0.09773272343852533, 0.2222342853389182, 0.2866357698481255, 0.22761532458565006, 0.1295938761555466, 0.12797457354479586, 0.08898177484752215, -0.03545197353432841, 0.00614935975761457, -0.028999856562901317, -0.008499426122375829, 0.04500247630391243, 0.10511436003716704, 0.023082919598623432, 0.042802100540876305, 0.18390934352571714, 0.27728622829426547, 0.1255074186032904, 0.24516677167996104, 0.17318717188236843, 0.17604433357614663, 0.10929931291266129, -0.01710438333698239, 0.2017797266912044, 0.26917143910025776, 0.2530755349884979, 0.18108401164152702, 0.17351881238230493, 0.13176536909492276, 0.2188220634724644, 0.23890155570318933, 0.10417643661311103, 0.17241513005043113, 0.030214110727336544, -0.01931084396860786, 0.026782806039819754, -0.007524389878619545, 0.04625326399720934, -0.02147158238163637, 0.009438882851791652, 0.07250523472663979, 0.1406801049249435, 0.16000555431846453, 0.3155301974514033, 0.2765301913742588, 0.07276977665778184, -0.020642076993547472, 0.062201876827481864, 0.15893085622775438, 0.06767874782890705, 0.18062131177806046, 0.3217843759161097, 0.2678270562864431, 0.24347872586863922, 0.3221060511867445, 0.2647863154449245, 0.274564524953186, 0.20578337687673948, 0.23036230940599867, 0.11356125152631523, 0.017298842669850663, 0.01058139832466034, 0.024824540565817538, -0.02622784607165516, -0.030661643567716886, -0.009162401885837985, -0.0018807903694362505, 0.06428639722723105, 0.04577913775198867, 0.09767202601710555, 0.11067289069712687, 0.13923918269973065, 0.175970886733858, -0.06079002145257046, -0.15757821003619749, -0.08985540016486793, -0.03790552915467237, -0.0019621290273183485, 0.13015964767214863, 0.047595935596981886, 0.1283179152347244, 0.23875553112341172, 0.23423340405859458, 0.20215333537732783, 0.25672896281196744, 0.17886952286799976, 0.13714614242908227, 0.027426080824478994, 0.003186255529008222, -0.03897818621755668, 0.047395380424275185, -0.0012651645847935136, -0.033662763856747935, -0.021173611409827254, -0.0016575336957766233, -0.00312245077770271, 0.036247761297940856, 0.07889173502480797, 0.059374732547348666, 0.04786222757457911, -0.03120896376441018, -0.07916687982740815, 0.0027547988803687112, -0.1091224539561513, -0.09304721549802844, -0.02880848590881976, 0.01883079870800782, -0.05810498129271584, 0.01656566188555336, 0.056846548779821676, 0.06397873149890598, 0.1680605624489082, 0.1710016442178865, 0.09103498104101158, -0.027436493758071702, -0.05981699514033921, -0.02800015591340607, 0.03444854941608302, 0.01249198590056397, -0.04583791564558524, -0.03088003449027583, 0.058006840194180904, -0.03544268783644565, -0.023607019824825992, 0.10886535377190854, 0.01154310984770403, -0.10744258001726639, -0.06605202669838708, -0.04732270167743798, -0.012980847845966466, 0.1246314736638343, 0.06127210218105259, 0.12777710464632777, 0.06413285531908233, -0.11741823934039365, -0.032429795413940254, -0.01775206823716173, 0.06209385062504095, 0.01251666873865142, 0.05142921313737041, 0.03311611887702601, -0.06310602973558121, -0.09511486361041768, -0.09964423819404006, -0.014230723709339418, 0.05174038571780833, -0.07021385294057868, 0.0837845218449099, -0.01218460898646335, 0.0017240320521246279, 0.0027114751726312757, -0.009506890404397533, 0.04098790586260383, -0.004351615332596787, -0.09357777948339073, -0.07846904683466766, -0.023278400787792638, -0.06058222061125901, 0.03975051959079504, 8.3579824548343E-4, 0.05049056026346999, -0.023384823820204733, 0.013805811565491677, -0.0031862468697845567, -0.019650627095628904, -0.1194877233221594, -0.17903298938107012, -0.13395757845674866, -0.21220890340430648, -0.16477549598013164, -0.1203893934370418, -0.051796960358876695, -0.03946509884552108, -0.09356623052360045, 0.09768853396972793, 0.0017825392968003444, -0.048218734778631735, 0.013302432141834474, -0.01384244219913079, -8.424371481401821E-4, -0.039480771367747455, -0.04030351400239252, -0.0010026006240373728, -0.00873301923976677, 0.02771046362249179, -0.07292118822456795, -0.023205776708244502, -0.06350251221356301, -0.17482486579649956, -0.15574796250767026, -0.16405235173848712, -0.22266805753397328, -0.1488763276801837, -0.10451623421013696, -0.16427541589763237, -0.12017532933732339, -0.13142525973161207, -0.09811841317489918, -0.09730302289262384, 0.0035609121921714652, -0.006715394592382608, -0.007040369807493613, 0.0040321955088446675, -0.0647732905447419, -0.013245949933715667, -0.037411538233421755, -0.0544220539997111, 0.019492619460754618, 0.0050339466933391796, 0.02367412933839625, 0.011047518141456414, 0.010825376215894534, -0.09644524680855275, -0.0643674024110445, -0.030898150625036216, -0.019289898523745932, -0.024141969512630146, -0.069135043940364, -0.010802605318776389, -0.07848072427625954, 0.008531060767725532, 0.016060185054195368, -0.0301888154416882, -0.016325114355983723, -0.08460265312380391, -0.026637005590411603, 0.00910634217116348, -0.04712996132183479, -0.0015707907617854256, 0.008616987804331256, -0.002139716323423799, 0.0445132035711699, 0.019318223771142947},
{-0.03886765354233938, 0.03559748267640516, 0.03728060250793659, 0.03837864445197414, -0.021517226066001767, 0.08056796353089103, 0.032931265420830635, -0.03365720534520026, -0.0057392815013037205, 0.009196715017459339, 0.04554760329278673, 0.0171220638417456, 0.01397836248820249, 0.04373199392073214, -0.07223041998054659, 0.014023176452169684, -0.021112196200693344, 0.017844815743208436, -0.010449448542343712, -0.019477858487577087, 0.004954259853472338, 0.029024606833249544, 0.013793874533794754, 0.017500111466257524, 0.06703020908015193, 0.005363918373518059, 0.017363509741173604, 0.010866876094791417, 0.0030523112635350695, -0.028265378319415828, -0.018791733011013497, -0.009014854579544703, 0.06225637706915313, 0.02099545481078105, 0.011183326645340306, -0.05085813958957896, 0.01354891628285294, 0.0028420534438881708, -0.028880783594877307, -0.0028113352303737603, -0.02741988134945455, 0.0076500735325726, -0.0066552863419407264, -0.010274917856553706, -0.02105489004967243, 0.019076739088273845, -4.7734384153393566E-4, -0.004412462891567803, 0.06635917138761417, -0.013317101292766094, 0.0023779339975297685, -0.016672961545633594, -0.025300851492083134, 0.03262529570566321, -0.049721961600083874, -0.04106168514466811, -0.014713159705570081, 0.04719978769992311, -0.03376510754315542, -0.051446863554505604, 0.04379560573115974, 0.01477130883186485, -0.04263922677304756, 0.0328719320943837, 0.01968478602908359, -0.013740301289163474, 0.05430753481461911, 0.03281639982451483, 0.01608313876245727, 0.03252702314040597, 0.013067625311316885, 0.00807109586719406, 0.022714873009510222, 0.05856271692333572, 0.10610635443756909, 0.09310836474076067, -0.01314553533656669, 0.07056686906798078, 0.05966055313401115, -0.035097904662128365, 0.031933436546854606, 0.0014033025841505805, 0.006725498048128301, 0.0573673132684781, 0.0031158942100802654, -0.04894301418524747, -0.02810452097712199, 0.0028126502916820525, -0.012095797227743309, -0.0014439464389679952, 0.0019961273541693747, 0.04931020261617053, -0.058562242774895544, -0.10728626922518714, -0.08555680255668607, -0.15206988049322198, -0.045273689480062086, -8.873208096066445E-4, 0.07242537323679496, 0.18393002615503018, 0.07821063739563561, 0.15273720088133086, 0.23908014630671406, 0.2967088771191461, 0.22777135719556885, 0.10439342742615623, 0.08566879755588819, 0.024901631702032977, -0.02869905008626379, 0.005921265934968815, -0.022264098692541142, -0.011544543524408798, -0.010943926487345922, 0.07184985896892505, -0.061389781411637555, -0.061440218916624066, 0.03315887046106194, 0.0068229636069873255, 0.025454659036281968, -0.007395170867066291, 0.01849208787191155, -0.13876173092361618, -0.01691840999527839, -0.07929380356599434, -0.04446046817866875, 0.13196570811024802, 0.16600081383068416, 0.25138202525367137, 0.14803207118701864, 0.15292513975710567, 0.15064388192349604, 0.15002504590500684, 0.11320139473867286, 0.1850191088581615, 0.157396085246409, 0.1116461854128277, 0.08011211749607532, 0.057432837372767845, -0.003236533414237077, 0.062006083472542134, 0.06871913318841827, 0.001665170143157956, -0.027756359609705888, 0.018737973368253186, 0.04141289371878166, 0.0676154826528822, 0.07633019521002098, -0.00981771671729695, 0.015711578347256904, 0.02193526013179645, 0.0018777360404436613, -0.01261228241301348, 0.009129545014481008, -0.1352341252606585, -0.10467500140568545, -0.016770981312860908, -0.09485117764710474, -0.08967430433497793, -0.05523454365460029, -0.017069229888137256, 0.0074745165310933625, -0.0249505323281825, 0.10064941228755055, 0.23178473299812055, 0.1427891447054907, -0.01656406374059493, -0.0444115402953746, 0.021980153633758062, 0.027888295204870073, -0.004574783265597792, -0.06419022597470726, 0.03404823072866768, 0.03361666811881283, 0.12345132703502586, 0.05595054174653828, 0.0645640691172223, 0.14251918061682015, 0.07274994819511155, 0.013422117101014005, 0.054918041023635185, -0.0907217511365519, -0.0569195238982147, -0.12583455494301593, -0.15267500041530618, -0.1471416879950942, -0.0012261843294472709, 0.03815015453585576, 0.07559650495857069, 0.026881254208434964, -0.010283582535404422, 0.04691816406342508, 0.1997704780640304, 0.20812322253849613, 0.12610217312473046, 0.03773313885901878, -0.014994862273062003, -0.027382519047245472, -0.025905040170495948, 0.032332328505231794, 0.008921579300160663, 0.1308112048264588, 0.07199644732867216, 0.14620267194376407, 0.1105338587528243, 0.0017317239460701522, 0.04393231265748926, 0.04782591841522376, -0.10251951357451597, 0.03220370683924292, -0.12212016620710424, -0.03696833201379197, 0.09343947494610187, -0.0104475092410717, 0.10507662433262753, 0.0862712989621421, 0.07034502953291559, 0.07348248468849582, -0.007365185450751331, -0.08352433711917384, 0.18772917065198858, 0.25198291604859774, 0.1707944301345996, 0.02836128067495904, 2.48190637386499E-4, -0.052286711728990215, 0.016136499418245045, -0.015574828471124097, 0.1207034205532895, 0.034264495130082874, 0.027613001727629302, 0.0869510759805234, 0.0016649480891332928, -0.047078513457525506, 0.005100970585913845, -0.0369596863234371, -0.09646113691872885, -0.08308619900126889, -0.07064717094234345, -0.2177754505135776, 0.021238384459508625, 0.1237927054325213, 0.1081647416220594, 0.11111366507906707, 0.00627065547488948, 0.08612612452210638, 0.048387159906069614, 0.03082280712095463, 0.2222292440181828, 0.31283159816373796, 0.10961658968439093, 0.02630854700224111, 0.0030606989585282938, -0.01945816355819747, 0.05567706975014343, 0.10878340536527337, 0.08127199824353874, 0.02609591539264188, -0.005848709655206511, 0.036076578171799815, -0.018990800062694206, 0.0029988367397968735, -0.16275136613956245, -0.14221337385942873, -0.2524047612953561, -0.2830357097416031, -0.19726244584625324, -0.17079045353380806, -0.0957711695018061, -0.011183777941909012, 0.06967150932348991, 0.05620059451679558, 0.08557920826423554, 0.11819965382185167, 0.14860675849538718, 0.10195969555965508, 0.2288025051364623, 0.34539191844017864, 0.24942900733295523, -0.01574694814825833, 0.05489345444313715, 0.026545420723407546, 0.007630185165263363, -0.03183841542091324, 0.07835409608972081, 0.0649749578363596, -0.035014866972937014, -0.08544352737389896, 0.018163319749617875, 0.00861413464561575, -0.07280141972993528, -0.15297933148258017, -0.17939599743579016, -0.13667314592016838, -0.09052250629287333, -0.2230293510840773, -0.13703949517448877, -0.010802849386991036, 0.04945869026091848, 0.020462257608123688, 0.05346874978497216, 0.1521896001358212, 0.18725926850038557, 0.3014883720285549, 0.2493689360798411, 0.23060003248380664, 0.19152116330816316, 0.056207315384412135, -0.04723461550879175, -0.021433147372924465, 5.335952461169003E-4, -0.005495376261925441, 0.0614007937471315, 0.05284173880340451, 0.09020000062082469, 0.13485010568481495, 0.1769009424268969, 0.10091056092444976, 0.10627740511249316, 0.11316276900045409, 0.1211928435222826, 0.1025005696727703, 0.21847289789678045, 0.0154723549669093, -0.06253832877480384, -0.14605161496473804, 0.009661552370801572, 0.04184550712105093, 0.0525313260005765, 0.3097974662975784, 0.2677885315956465, 0.1541377076266164, 0.09259061736440093, 0.0673475205279171, -2.540605595011821E-4, -0.0278510079653079, -0.004824646556360071, 0.014021016575258402, -0.06260252208095228, 0.026945372159635522, 0.02802368561744808, 0.03556610328580621, 0.16386645776327688, 0.3264938701376085, 0.4332252957823198, 0.32026712774658944, 0.2692694381222989, 0.3192336011978924, 0.2394770774764262, 0.30552839833418777, 0.088446761988151, -0.10783596881639775, -0.19166343480636255, -0.12134908280295821, -0.028781401020617856, 0.12285367908399016, 0.2398359474928771, 0.2724605686113406, 0.26990789928067604, 0.14211349793761696, 0.06872718349206725, -0.06279294985076939, -0.07670984156860719, -0.0746201360734174, -0.038048326461844466, 0.01854907367676877, 0.004754910721304126, 0.05460887495101328, 0.006032244129461845, 0.10324928076392699, 0.2861354045314277, 0.43387594348032954, 0.359583181719454, 0.3460091022845656, 0.29512892917527794, 0.12158371361053423, 0.07954388488937693, 0.024079991736848872, -0.17798345185818296, -0.19982429568809207, -0.0956849984052172, -0.13578592467031964, -0.008853477035008496, 0.1988823443827567, 0.38453940306429346, 0.32008424895323623, 0.16613676373807407, 0.022567837657879546, -0.07330770563842454, -0.19789314286690027, -0.20925522600344548, -0.049259254255669, -0.04810544588974866, 0.03336072000458514, 0.016591228168483976, -0.04726858139439062, -0.0019221228380449415, 0.02885945544925145, 0.22319818579320155, 0.27338529313713417, 0.21337474691609928, 0.1477126902118371, 0.13420503540253628, 0.07742239636302804, 0.05379987739032714, -0.023771171793226662, -0.15778370992311191, -0.09368773438415162, 0.06822690526464922, -0.11519669048910107, 0.09201238084653206, 0.246537603192443, 0.2666734458630435, 0.2631929798691008, 0.21291991236961075, -0.06627805322702734, -0.019407192822691894, -0.06083047637611743, -0.16023100588809858, -0.12453944937148109, 0.025325671776772547, -0.06301290562356161, 0.0489234837206195, -0.004494716638100411, 0.0753652296423866, -0.015512264102236871, 0.054475996386647275, -0.05360374079296986, -0.04415931187174322, 0.04753625041823097, -0.05895484715818431, -0.0010449044923347243, -0.03817313238668201, 0.0655509974504346, -0.1242655010120614, -0.04416092114431786, -0.043265850633837095, -0.13030802368317465, 0.16944450474251613, 0.5687596529336238, 0.3365767509426136, 0.22352840455458253, 0.06155515977777776, 0.03297190628915983, -0.044198645348108134, -0.05633855954016343, -0.20265015563553895, -0.1264989574233248, 0.0015984814262314311, -0.019214523180695626, 0.0016055521224568538, -0.05098148069404866, -0.011375362563725655, 0.021548390183910335, 0.018461204973327972, -0.10157303418222766, -0.10307833670972841, -0.10268305405076031, -0.056980400648932346, -0.0371257953524762, -0.036381246429623974, -0.05585042752767369, -0.10982648766669885, -0.09103638835481564, -0.05463811453564446, 0.0038594149950892244, 0.1896977399360757, 0.3899828394321747, 0.260169240626198, 0.0826636040296311, -0.1210231735274898, -0.13394987163294678, -0.05121989035495972, -0.16294573747186789, -0.2523311479807126, -0.13222727113787247, -0.0327768575924332, 0.03200684472364098, -0.009298573969862904, -0.014195107506788615, 0.011973191874598752, -0.019589068915986864, 0.03754707627281315, 0.10103733988449236, 0.0623410437024435, -0.07421060697831078, -0.05302465807877636, -0.12052070567684095, -0.11007536955348222, -0.1923180915746957, -0.1894992615631458, -0.16521832267450193, -0.015568352479215801, 0.18734380568517456, 0.3814135899562979, 0.2957202375674208, 0.14940447484652894, -0.05969677603168564, -0.10274873318754058, -0.12702120321107027, -0.0827833751976533, -0.22463516196197975, -0.2989721375159472, -0.06777320629431635, -0.05291597283114879, 0.029361268755845615, 0.0018851435256696614, 0.02737556939231544, 0.035872923880923085, 0.0066662661350685645, -0.02355859885576047, 0.13377717358094482, -0.010183049243639842, -0.053371296299618086, -0.10321592783632694, -0.12396801649333655, -0.14461448772524205, -0.10659880259079269, -0.15638200808944666, -0.024234192483159073, 0.24177522542995133, 0.22650180613182672, 0.20493297015954604, 0.12271478683913178, -0.028316901436393715, -0.0074737207467770956, -0.11895888891524134, -0.10473084910289453, -0.2854183639690849, -0.348049482936377, -0.13249159627219512, -0.07320637662094125, -0.020694696582296578, 0.013775295943839139, 0.028609309558105263, -0.01102935127644524, 0.019323773332762396, -0.08625442767032714, 0.11100577867024522, 0.10322016423142501, -0.003321901166549486, -0.07000047994764295, -0.11428299356182738, -0.1629879712422356, -0.05851119277929672, -0.05152423484554193, -0.10375087189028531, 0.08139169536143928, 0.3118168351538006, 0.2362024314582045, 0.07599809626585594, 0.0011031362785155212, 0.1067258918724538, 0.02978874463521617, -0.05010358616603383, -0.10459169859763344, -0.1500191890582099, -0.23230227753912192, -0.20604759152536212, -0.0493291819372222, -0.021520566728875836, -0.04675224287241968, 2.2630120060202177E-4, -0.026195990725713252, -0.044240864513055415, -0.09724255990537684, 0.0060205449123699965, 0.034608751703314386, -0.05379560551946331, -0.19993918082297069, -0.16654533550330666, -0.09819139663413926, -0.09640877945783749, -0.10039959939413236, 0.03924445244966691, 0.18825719346901773, 0.19230012054839352, 0.22563110549568555, 0.11960594235331255, 0.07178641109251327, -0.048184200464216474, 0.12487793343498767, 0.015788361688757285, -0.09159528679920073, -0.20724307226686312, -0.12952773323955336, -0.09957208554955202, -0.011209586016757986, 0.001780293699243517, -0.04185117257144735, -0.01395469147332929, 0.02547981464765229, 0.05190475653426406, 0.007384078350331937, 0.07731575880261149, -0.0016119858301193333, 0.05405532703481423, 0.03825287789492197, -0.21127365719217114, -0.07737611510670525, -0.015570804706583688, 0.07800007310373848, 0.06524521593913851, 0.17079363847608073, 0.23221751539524274, 0.17714940907694768, 0.08079751747185467, -0.00989317437704516, -0.0013746827716773224, 0.04251645635928314, 0.07378370479658024, -0.1785124285891592, -0.12068797030095406, -0.09230941416022036, -0.09882007560319593, 0.04772702390222658, -0.0027566761260052366, 0.047119188780886605, 0.002209311694113569, 0.017664071967197676, -0.012555949654164558, 0.009290431476051861, -0.10989278044549172, -0.0022178231669201173, -0.10283955460550842, -0.07738792463728504, -0.08544864542782024, 0.002593284683468228, 0.033000314769189916, 0.10686221696668538, 0.12895775290324699, 0.07481095467191345, 0.20797043803196202, 0.1479639224451123, 0.1377464436074052, -0.13240295927564358, -0.09234066469459089, -0.06997873521479048, -0.10609600841023158, -0.11588379117789485, -0.06925947878240828, -0.09613336236911187, 0.0037337144489639523, -0.03900582285164797, 0.01741194771664343, -0.022120602820985536, 7.91957208888218E-4, 0.03644557786319308, -0.04207452884184778, 0.09068355957728158, 0.057770492717337786, -0.021399348649877126, -0.022428828816103, -0.05851731118290006, 3.5518827767334275E-4, -0.03916668282945769, -0.08899497933065426, -0.01390993929029754, 0.07422765798264366, 0.14737836856210965, 0.07576779932236459, 0.08790242562292228, 0.10811606826893524, 0.02037293174834733, -0.06882280118704645, -0.01786318930722491, -0.10280997677922744, -0.1274469557108258, -0.07037986935939199, -0.06912914576185612, -0.027089993159064983, 0.009475157561738315, -0.04595510925529055, 0.021920485851379724, 0.048072861348422216, 0.006514041608441204, 0.07028568839558091, 0.06679268646345914, -0.02789080843880507, 0.06830529319643687, 0.18953643416349766, 0.18362735126796453, 0.28796011008549544, 0.27268344848689957, 0.15288172378332104, 0.10806276693245168, 0.0895259165034458, 0.01469167075183275, 0.0733246496329502, 0.21775924835912294, 0.14153418021595346, 0.11280698014293429, 0.04281980757445, -0.011454154635431405, -0.007713846481703301, 0.037691059598151846, 0.005196816764322506, 4.049321231738749E-4, 0.009404674587009769, -0.03380176653353325, 0.0034823289205889773, -0.028080812216574495, -0.050221905414226935, 0.060904295252384194, -0.035588510070601494, -0.05575184640434796, 0.0348122701595359, 0.006474511642729668, 0.12134047874998694, 0.2244074371320322, 0.20353015045416462, 0.31261276915652897, 0.31987544605997137, 0.3007387042873394, 0.23564848708311592, 0.2589517187256396, 0.12203971277706413, 0.19543162505308176, 0.14986996478768047, 0.16013615323025795, 0.08358832772136676, 0.03585833350365592, 0.0390221292089821, -0.00845419973672519, -0.06204051569641674, -0.007730385111627594, 0.00253703410968279, -0.004893898004415974, -0.02637955985382057, -0.009990829974867995, -0.005238712244260645, 6.020193994890704E-5, 0.03474755618597089, 0.008900296255079751, 0.03168073937085838, -0.0465984766139962, -0.004153074768129678, -0.012327101627081246, -0.013191622437113117, 0.0334014009511627, 0.03650939935198645, 0.09733466142148899, 0.061457603243368936, 0.04367734056353097, 0.10746746027221708, 0.11686179913727363, 0.04731925729574858, 0.08930938414593428, -0.05195532891935686, -5.411482154578152E-4, 0.05858260912225891, -0.03158179512968125, 0.03734310777030907, -0.013944780377620444, 0.013027064734956312, 0.0020388639126729074, 0.008133122438019348, 0.07178136350502388, 0.0259309179772101, 0.07049241970997715, -0.029925736666669197, 0.006117840911611781, 0.00693023714234319, 0.018112272041698168, 0.037452410110697415, -8.505299192221003E-4, -0.0021066842254246375, 0.029119298617503973, 0.02043534978836068, 0.024389747955158185, -0.015470035303527882, -0.016464661686423947, 0.032215524830979066, 0.026771051688058056, 0.028603048390754872, -5.384777672506532E-4, -0.02593987551897233, -0.029268910268219754, 0.036636391897383214, 0.024565552289209272, -0.011372250939919993, 0.03120317856047305, -0.06012300966948327, 0.015013054285389274, 0.033645988937093425},
